9328 10
</s> 0.040027 0.044194 -0.038303 -0.032780 0.013666 0.030211 0.009409 0.002113 -0.036035 0.022185 
l7153 -0.003238 -0.057967 0.075971 -0.016912 0.025705 0.011474 -0.054800 -0.007978 -0.052620 0.068402 
l9952 0.094297 0.016818 -0.088658 -0.109950 0.043257 -0.223459 -0.204644 -0.027797 -0.022313 0.095969 
l2377 0.107479 0.070731 0.151900 0.023711 0.095607 -0.034658 -0.115136 -0.215527 0.101044 -0.080145 
l5621 -0.047078 -0.021508 0.072856 -0.286400 -0.047703 -0.079846 -0.095202 -0.033013 0.037592 0.060250 
l5813 0.043913 0.023539 0.172476 0.174502 0.043359 0.013356 -0.045868 0.007327 0.115304 0.001376 
l30 0.074295 0.069525 0.101036 0.188937 0.061419 -0.069847 -0.110881 -0.047251 0.118645 0.028223 
l1719 -0.165028 0.042862 -0.125222 -0.137788 -0.070137 0.044938 0.212629 0.019946 -0.113198 0.010673 
l2333 -0.004454 -0.075735 0.001341 0.032837 0.035566 -0.028496 -0.045425 0.041602 -0.078446 0.101410 
l3636 0.163842 0.082235 0.259612 0.011480 0.184453 -0.111310 -0.172513 -0.194882 0.027290 -0.077130 
u13 -0.116693 0.079370 0.194863 -0.114574 0.123942 -0.094036 -0.063195 -0.124111 -0.037519 -0.169280 
l8380 -0.209108 -0.021114 -0.106478 -0.173349 -0.050293 0.133987 0.238626 0.064223 -0.166956 0.021834 
u384 0.164494 -0.154648 -0.105920 -0.025351 -0.427495 0.106934 0.054862 0.086584 0.068316 0.089447 
l5877 0.168484 -0.131725 -0.032588 -0.090070 -0.326372 0.048740 0.034169 -0.048726 0.212184 0.131794 
l2635 -0.017748 -0.031720 0.035686 -0.121490 0.128768 -0.151967 -0.210430 -0.134987 -0.064966 0.048606 
l2699 0.023259 0.088809 0.196781 0.110288 0.229445 0.071212 -0.176427 -0.170820 0.097296 -0.155542 
l4612 0.100508 0.091739 0.182012 0.099610 0.187063 -0.094843 -0.100347 -0.207767 0.135731 -0.137050 
l9126 0.215582 -0.001286 0.028911 0.086981 0.059982 -0.030171 -0.090147 0.052305 0.043900 0.063815 
l2307 -0.053040 0.112137 0.117750 -0.086807 0.084323 -0.156150 -0.187316 -0.101577 0.058256 0.029334 
l2829 0.123737 -0.123912 -0.030272 -0.052276 -0.294091 0.085903 0.022758 -0.064401 0.231377 0.080858 
l6056 0.086035 0.113162 0.155653 0.128335 0.251941 0.008156 -0.139829 -0.218025 0.116970 -0.172872 
l4407 0.101004 -0.054135 0.078999 -0.045450 -0.168555 0.047059 -0.125388 -0.084126 0.249850 0.050783 
l6640 -0.170961 -0.140024 0.038106 0.001817 0.069741 0.128345 0.133461 0.050752 -0.092534 -0.053286 
l1825 -0.056748 0.075136 0.117202 -0.167378 0.007685 -0.141412 -0.101900 -0.043108 0.028675 0.061711 
l2853 0.188261 -0.054836 0.152475 0.029969 -0.348137 0.109941 0.159981 0.204784 0.004557 0.202056 
l7354 -0.002624 0.120356 0.079419 -0.213531 0.115993 0.004811 -0.087740 -0.116708 0.004620 0.114655 
l5484 -0.170914 0.049560 0.014791 -0.267614 -0.202093 -0.146059 -0.067093 0.016731 0.072267 -0.026415 
l880 -0.106267 -0.039382 0.156679 -0.029102 0.009473 -0.124920 -0.115308 -0.014926 0.019103 0.136064 
l2823 0.166921 -0.049828 -0.032344 0.122755 -0.127468 0.032335 0.007011 0.055542 -0.065461 0.248251 
l1622 0.122840 -0.153232 -0.110096 0.021933 -0.316322 0.122991 -0.117133 0.096894 0.238555 0.073961 
l5250 -0.066624 0.104008 0.218512 -0.090776 -0.010423 -0.192681 -0.121358 -0.024861 0.047884 0.049558 
u251 0.100244 0.050778 0.042277 0.109231 0.364209 0.057069 -0.153861 -0.128502 0.166124 -0.196848 
l7325 -0.033289 -0.064414 -0.165899 -0.252451 -0.252314 -0.043047 -0.011299 -0.086829 0.070151 0.255833 
l6841 -0.197225 0.064137 0.136698 -0.119733 -0.001295 -0.203038 -0.183798 -0.118315 -0.030887 -0.051790 
u620 0.256827 -0.123873 -0.334662 -0.156396 0.124060 -0.383681 -0.128825 0.035285 0.141379 -0.030548 
l8072 -0.111213 -0.216882 -0.068939 -0.017621 -0.112882 0.101597 0.214511 0.131821 -0.159549 0.184334 
l7251 0.133539 -0.313864 -0.093573 0.096738 -0.095014 0.115726 -0.019671 -0.086520 0.140157 -0.007790 
l388 0.144850 -0.110746 -0.238694 -0.050904 -0.168818 0.078753 0.168092 0.077620 -0.148203 0.089196 
l5781 -0.058798 0.139931 0.179468 0.118182 0.211731 0.179182 -0.077123 -0.145540 0.072200 -0.122218 
u689 0.208500 -0.212879 -0.106444 -0.091191 -0.293654 0.083920 0.022390 0.017897 0.086347 0.178564 
l89 -0.178855 -0.302166 -0.259014 -0.080355 -0.052184 0.174826 0.359542 0.135391 -0.268727 0.047095 
u248 0.204911 0.169682 -0.033309 0.156431 -0.028555 -0.059108 -0.020506 -0.104220 -0.410966 -0.282376 
u299 0.190367 0.077937 0.114150 0.059782 0.264032 -0.091096 -0.194322 -0.203881 0.108391 -0.099441 
l7981 0.130663 -0.053971 0.091618 0.024338 -0.425715 0.150350 0.089018 0.100170 0.189652 0.097191 
l1835 0.133486 -0.032632 -0.168584 -0.099749 -0.319734 0.093313 0.021825 0.152150 0.073393 0.302363 
l1617 0.040202 0.164628 0.154061 0.036917 0.038681 -0.189929 -0.279404 -0.074818 -0.009141 0.052524 
l4944 0.144271 -0.367761 -0.172618 0.150789 -0.147543 0.110695 -0.035997 -0.075047 0.027878 -0.058573 
l1373 -0.050706 -0.081086 0.086778 -0.322639 -0.036640 0.072837 -0.039926 0.003497 -0.077327 0.112127 
u935 0.088544 -0.113436 0.260182 -0.110605 0.231315 0.058933 -0.109730 0.031215 -0.251984 0.245094 
u964 0.115553 -0.108730 -0.199351 -0.016803 -0.024271 0.262558 0.410725 0.063401 -0.418767 0.063355 
u539 0.075508 0.208820 0.029226 0.161467 0.290223 0.038910 -0.180173 -0.090523 0.111746 -0.230546 
l1534 -0.308365 -0.095115 -0.118512 -0.171061 -0.061551 0.139812 0.244969 0.142227 -0.121862 -0.218231 
l9120 0.227332 -0.037365 -0.017520 -0.033233 -0.017084 0.056299 -0.037220 -0.064118 -0.059866 0.043892 
u866 -0.187344 -0.169216 -0.257908 -0.100177 -0.025119 0.223323 0.191706 0.163927 -0.165595 -0.267873 
u357 -0.012117 0.051470 0.178896 0.184441 0.330311 -0.078213 -0.150403 -0.171974 0.073970 -0.228835 
u6 -0.000124 -0.007382 0.112042 0.174498 0.130633 0.048458 -0.158898 -0.084010 0.193806 -0.124784 
l5170 0.212789 -0.123101 -0.248774 -0.053290 -0.151651 -0.054731 0.133143 0.088703 -0.120277 0.110257 
l2019 0.134662 0.085389 0.225309 0.076554 0.187893 -0.103115 -0.059341 -0.214100 0.124195 -0.113839 
u219 0.054223 0.032687 -0.016992 0.056337 0.064579 0.042103 -0.187524 -0.128141 0.242691 -0.142231 
l7751 0.245282 -0.147606 -0.178858 -0.066056 -0.190612 -0.056541 -0.081479 -0.199902 0.090132 0.018647 
l9618 -0.031927 0.170656 0.084727 -0.241114 0.047317 -0.055137 -0.092628 -0.145891 -0.028566 0.111002 
l2698 -0.242892 -0.196087 -0.144153 -0.066283 -0.058061 0.070285 0.165871 0.169519 -0.165765 -0.024373 
u612 0.077327 0.090979 0.195858 0.080829 0.340403 -0.149371 -0.057186 -0.078150 -0.015951 -0.108352 
l7969 0.115431 -0.110879 -0.140217 0.093927 -0.159565 0.049810 0.063383 0.157259 0.058171 0.327322 
u57 0.179886 -0.120455 -0.037097 -0.054900 -0.468349 0.168219 0.081577 0.097583 0.116179 0.197647 
u291 -0.068102 -0.037896 -0.128768 -0.220115 -0.199309 -0.193938 0.227348 0.118598 -0.006500 0.305130 
l4056 0.144596 -0.073500 -0.190951 -0.040462 -0.103750 0.007346 0.107711 -0.020825 -0.002929 0.120748 
l9660 -0.203463 0.026567 0.158865 -0.204523 -0.035703 -0.280719 -0.203049 0.139213 0.109881 -0.109235 
l2973 -0.067474 0.028009 0.175618 -0.241871 -0.025957 -0.099087 -0.182552 -0.003230 0.156023 -0.012622 
l4739 -0.013293 -0.045766 0.175415 0.139325 0.271702 0.056997 -0.088842 -0.195948 0.070195 -0.174853 
u739 -0.156340 0.287618 0.221033 -0.164374 0.067833 -0.174466 -0.104892 -0.117736 -0.212274 -0.032898 
u157 -0.225806 0.448850 -0.202100 0.257003 -0.087268 -0.038817 0.123099 0.090996 -0.199346 -0.170248 
l3839 0.135615 0.185689 0.161143 0.105968 0.197697 -0.034989 -0.094707 -0.240166 0.166386 -0.101798 
l1848 0.192944 0.188539 -0.067202 -0.068692 -0.306092 0.350215 -0.285013 0.201573 0.074923 -0.020215 
l3163 0.142246 0.083140 0.167608 0.108035 0.235354 -0.070554 -0.236124 -0.200566 -0.097203 -0.189176 
u923 -0.047935 0.234014 -0.096372 -0.215606 0.119504 -0.047589 0.015360 -0.059970 -0.170240 0.182732 
l8189 -0.086211 0.175256 0.278353 0.038854 0.134871 -0.156874 -0.224761 -0.132769 0.095773 -0.029843 
u452 0.042493 0.107779 0.212346 0.221151 0.273431 -0.011989 -0.222714 -0.138667 0.033187 -0.086461 
u701 0.245092 -0.063829 -0.340972 -0.157249 -0.149690 -0.202066 -0.026190 -0.118714 0.014638 0.056294 
l6829 0.148121 0.110055 0.274697 0.056817 0.263121 -0.047116 -0.155993 -0.175952 0.045261 -0.181530 
l9878 0.115369 0.090267 0.318956 -0.012764 0.197063 -0.043857 -0.158163 -0.199524 0.045169 -0.077039 
l1708 -0.080314 0.040222 0.137780 -0.206537 0.010033 -0.166832 -0.248791 -0.145889 0.057951 0.040557 
u283 0.033386 0.084684 0.155004 0.225582 0.287170 -0.077154 -0.184526 -0.090027 0.114049 -0.234998 
u424 -0.100487 0.261004 0.019684 -0.285631 0.123260 -0.249998 -0.292802 -0.007301 0.118865 0.109446 
u848 0.032350 0.161722 0.215136 0.276357 0.198848 0.039585 -0.205371 -0.133756 0.022479 -0.069544 
l3664 0.029323 -0.193271 0.184931 0.015551 -0.162365 0.160332 0.199767 0.070994 0.328596 0.341795 
u903 -0.020046 0.311891 0.056398 -0.106451 0.200890 -0.130593 -0.000592 0.141725 0.055684 0.001045 
l7352 0.009997 0.119855 0.161639 0.203109 0.334908 0.021723 -0.272220 -0.190303 0.083265 -0.186585 
u249 0.031361 0.058532 0.093693 -0.007408 -0.051628 0.051597 -0.062556 0.159690 -0.108419 0.201780 
u464 -0.034185 0.061988 0.000284 0.221686 0.257221 0.112475 -0.110831 -0.067379 0.192535 -0.164879 
u323 0.031156 0.095322 0.202224 0.194802 0.315513 0.014744 -0.154201 -0.177040 0.180780 -0.202503 
u160 0.078736 0.096744 0.199769 0.208176 0.229489 -0.006480 -0.249431 -0.216166 0.039868 -0.160330 
l3813 0.229431 -0.121092 -0.132249 -0.093917 -0.229410 0.043260 0.197867 0.071216 -0.163126 0.047083 
u940 -0.036087 -0.186188 -0.379976 0.154287 -0.215697 -0.114469 -0.134919 0.180331 0.098393 -0.293289 
l120 0.000449 0.131414 0.219831 0.025672 0.208605 -0.092238 -0.179416 -0.153905 0.011971 -0.063117 
l7430 0.100219 -0.098647 -0.220081 -0.276520 -0.193514 -0.354816 0.027087 -0.066974 -0.038181 0.073251 
l6833 0.150156 -0.173010 -0.176843 0.058946 -0.318974 0.079532 -0.077268 -0.011967 0.082758 -0.073187 
u410 0.084257 -0.334040 -0.165323 -0.043886 -0.196380 0.055858 -0.009299 -0.090416 0.090552 0.030284 
l3307 0.141306 0.063395 0.099736 0.144533 -0.224352 0.077484 0.117578 0.228572 0.068318 0.213467 
l7363 0.158337 -0.119027 0.049430 0.064144 0.099512 -0.019689 -0.060997 -0.249647 0.154123 -0.184029 
u748 -0.026793 0.045146 0.183066 0.039123 0.254117 0.004204 -0.031836 -0.119696 0.159456 -0.139173 
u426 0.031547 -0.092807 0.083700 0.015630 0.167547 0.086213 0.017543 -0.376715 0.027621 -0.130401 
l4746 -0.323247 -0.052293 -0.073407 -0.193915 -0.054872 0.161493 0.259910 0.165192 -0.147010 -0.234099 
l1776 -0.032459 0.219647 0.194707 -0.082970 0.074673 -0.158316 -0.311814 -0.037886 0.045771 0.018003 
l7997 -0.322235 -0.029411 -0.118683 -0.202960 -0.082914 0.130852 0.336023 0.204400 -0.111688 -0.274747 
l6897 0.167104 -0.079647 -0.318804 -0.118130 -0.145049 -0.167473 -0.225075 0.110079 0.004885 0.245227 
u729 0.195232 0.140565 0.035893 -0.040299 0.153209 -0.078372 -0.326615 -0.178089 -0.072617 -0.106268 
u657 0.098422 0.037584 0.153205 0.054982 0.289100 0.044859 -0.241419 -0.126608 0.069727 -0.210279 
l6865 0.161789 -0.079402 -0.196556 -0.168924 -0.063164 -0.362426 -0.148694 -0.064847 -0.018926 0.084995 
u428 -0.025388 -0.185585 -0.196146 -0.140450 -0.043050 0.224517 0.398892 0.155195 -0.369302 0.064847 
l9653 0.152973 -0.102684 0.037628 -0.010837 -0.569264 0.193546 0.138278 0.149403 0.125694 0.087244 
u731 -0.002446 -0.067527 0.168039 0.080883 0.255299 -0.130420 -0.077489 -0.201660 0.198894 -0.187767 
u777 0.165832 0.203377 -0.024843 -0.110212 -0.234121 0.343987 -0.297872 0.185903 0.026682 -0.066463 
l4730 -0.003745 0.113594 0.168555 -0.252409 0.019047 -0.189273 -0.089542 -0.001929 0.069864 0.057803 
l7852 0.241078 -0.185333 -0.119557 -0.065786 -0.416876 0.137172 0.056323 -0.003191 0.193015 0.177589 
u401 0.005333 0.161097 -0.074248 0.261773 -0.139930 -0.147177 0.185074 -0.098861 0.140162 0.295697 
l8804 0.175445 0.107811 -0.212322 -0.206433 -0.129723 0.019643 0.039421 0.003646 -0.180606 0.099934 
l7373 0.219288 -0.193701 -0.142126 -0.043082 -0.143070 -0.079128 -0.042967 0.049575 -0.059482 0.059648 
l1122 0.131705 0.088767 0.029577 -0.101988 0.233751 -0.085131 -0.216504 -0.115904 0.142082 0.039706 
u38 0.038641 0.065416 0.171858 -0.296230 0.004149 -0.190939 -0.254044 -0.144564 -0.077537 0.072957 
u913 -0.273451 -0.042515 -0.056135 0.076422 -0.248606 -0.363213 0.089436 0.275640 -0.178176 0.035692 
u62 0.110085 -0.022043 0.296565 -0.021992 -0.287550 -0.143898 0.226545 0.179039 0.043685 0.277440 
l1079 0.036660 0.083700 0.142909 -0.295276 0.226633 0.099258 -0.162204 0.003553 -0.162629 0.219630 
l9082 -0.232050 -0.069623 -0.181379 -0.162927 -0.075656 0.060750 0.186822 0.171872 0.001991 -0.287726 
u2 0.026038 0.145964 0.135286 0.218068 0.328650 0.047493 -0.169225 -0.160879 0.134081 -0.230567 
l4119 0.273660 -0.085902 -0.431897 -0.202887 -0.182585 -0.231176 -0.014829 -0.105963 -0.028680 0.075220 
u320 -0.102792 0.119850 -0.155194 -0.031013 0.086260 -0.205889 -0.067592 0.023379 -0.149722 0.246864 
u68 0.098843 0.192567 0.247281 0.157551 0.309486 -0.012217 -0.122840 -0.144214 0.128561 -0.158064 
u121 0.148962 -0.007433 -0.241739 -0.184550 -0.177033 -0.072426 -0.149523 0.072953 0.126838 0.162848 
l4270 0.068737 -0.087997 -0.170586 -0.248624 -0.255988 -0.013979 0.045961 -0.078375 -0.012685 0.194707 
l9188 0.219182 -0.142106 -0.136176 -0.106212 -0.329650 0.136657 -0.005529 -0.024740 0.242895 0.199090 
u47 0.187178 -0.147172 -0.247577 -0.209579 -0.122194 -0.165656 -0.076695 -0.226240 -0.056120 0.120710 
u9 -0.071399 -0.021650 0.148959 0.175554 0.275212 0.150237 -0.061645 -0.161665 0.200310 -0.166496 
l4892 0.137849 -0.186082 -0.174390 -0.154015 0.030967 0.007708 0.118322 0.044322 0.018664 0.250281 
u35 0.028624 0.068393 0.181597 -0.110139 0.254566 -0.205029 -0.235129 -0.001673 0.038371 -0.018127 
l6694 -0.195749 -0.173437 -0.159506 0.015042 0.022719 0.160066 0.302345 0.131673 -0.270263 -0.006749 
u534 -0.146952 -0.072681 -0.141698 -0.264006 -0.216216 -0.017969 0.155651 0.010562 -0.059787 0.034340 
u931 -0.089919 0.047908 -0.122423 -0.223118 -0.179526 0.020843 0.007559 -0.349792 0.075097 0.214058 
l5559 -0.129274 0.138993 0.171730 -0.189436 0.013269 -0.029291 0.020253 0.055470 0.058609 -0.033043 
l1506 0.149482 0.139677 0.131011 0.131582 0.225031 0.002645 -0.112853 -0.216141 0.190771 -0.155447 
u569 0.166668 0.054034 -0.139926 -0.373088 -0.128987 -0.334426 0.202967 0.053518 0.229203 -0.020080 
u1049 0.152438 0.223526 0.140069 0.007843 0.207629 -0.121513 -0.196935 -0.202013 0.035902 -0.112745 
l9345 0.066989 -0.048565 0.243373 0.267173 -0.073548 0.002450 0.145786 0.168941 0.182933 -0.085252 
l926 -0.049692 0.233347 0.171901 0.001739 0.281837 -0.029408 -0.059563 0.033985 -0.052333 -0.017063 
u532 0.144991 0.100054 0.125354 0.079353 0.141313 -0.010827 -0.184321 -0.284739 0.138133 -0.137652 
l3120 -0.099062 -0.332460 -0.246399 -0.057025 -0.046801 0.120094 0.349088 0.096193 -0.336731 0.082250 
l6664 0.195140 -0.017841 0.025473 -0.139379 -0.035202 0.142268 0.000082 -0.054537 0.251269 -0.086020 
u376 0.084830 0.068340 0.074127 0.011857 0.125666 -0.149338 -0.373305 -0.104068 0.081705 -0.020814 
l5743 -0.023723 0.177142 0.156496 0.109587 0.198874 0.117807 -0.132960 -0.241353 0.137733 -0.086364 
l1191 -0.152228 0.311937 -0.090752 0.149646 0.072138 -0.062519 0.075507 0.004115 -0.097711 -0.125322 
l1085 0.055037 -0.155055 -0.262008 -0.209792 -0.179419 -0.270206 -0.062014 0.086569 -0.020262 0.139254 
u447 -0.110252 0.073593 0.229421 -0.185626 0.011725 -0.151402 -0.274314 -0.159100 0.035993 0.063144 
u883 0.010100 0.017299 0.151330 -0.157304 0.181667 -0.035441 -0.199549 -0.142152 0.115875 -0.036708 
l3931 -0.202370 0.155073 0.098844 -0.210943 -0.078342 -0.233468 -0.180485 0.041453 0.027406 -0.065517 
u327 0.009304 -0.104138 -0.146564 -0.037269 -0.071950 -0.019722 0.150805 -0.264269 0.008991 0.118993 
u416 -0.008006 -0.042078 0.118715 0.156060 0.286982 0.152195 -0.194482 -0.202167 0.046496 -0.258957 
u843 0.093830 -0.004288 0.108517 0.220108 0.279529 0.088681 -0.192170 -0.192550 0.067550 -0.227053 
u599 0.069050 0.052448 0.147068 0.119502 0.235262 0.120387 -0.240276 -0.253368 0.003314 -0.189043 
l5241 -0.195552 -0.269569 -0.058086 0.004646 0.005351 0.130036 0.179234 0.028631 -0.196096 0.073364 
u238 0.038198 -0.225053 0.159356 0.001822 -0.161625 0.172124 0.144520 0.041952 0.311675 0.357144 
u155 -0.080188 0.169187 0.043702 -0.027895 0.272477 -0.000623 -0.108199 -0.134685 -0.072633 -0.047542 
u790 -0.015404 -0.217045 0.144097 -0.040523 -0.218955 0.154974 0.149020 0.072786 0.290114 0.277335 
u724 -0.173597 -0.101726 -0.115590 -0.222602 -0.069972 0.219617 0.384469 0.129778 -0.229296 -0.119943 
u919 -0.019891 0.134044 0.171518 0.051565 0.137120 -0.218105 -0.272906 -0.221481 -0.037520 -0.114709 
u884 -0.188145 0.166701 0.193958 0.079318 0.136256 -0.159520 -0.012163 -0.045871 -0.002754 0.079710 
u379 0.260231 -0.124192 -0.046198 -0.021316 -0.324587 0.239832 0.160824 0.028855 0.221062 0.221563 
u970 0.031356 0.056892 0.237778 -0.013948 0.241657 -0.210571 -0.216113 0.039767 -0.039729 -0.026726 
u698 -0.011667 0.156916 0.268529 0.253479 0.127444 -0.082674 -0.218397 -0.114782 -0.069791 0.034330 
u164 0.081464 0.005469 -0.151105 -0.130157 0.194681 0.064310 -0.167812 -0.179081 0.001931 0.096246 
l8686 0.097065 0.140636 0.247746 0.112218 0.245182 -0.009781 -0.173842 -0.255238 0.110769 -0.159970 
u126 0.048986 0.097459 0.311037 0.130978 0.255530 0.000255 -0.166166 -0.185707 0.077536 -0.179109 
u566 0.144433 0.100699 0.146825 0.248354 0.249047 0.088850 0.007112 -0.115442 0.198410 -0.269594 
l5761 -0.014730 0.353158 0.051813 -0.170173 0.105254 -0.168801 -0.023371 0.005940 -0.117479 0.111561 
l5162 0.127265 -0.114249 -0.131124 -0.103570 -0.238147 -0.074390 0.002592 -0.047012 0.273973 0.110714 
u298 0.175733 -0.015358 -0.100746 -0.033826 -0.261548 0.079658 -0.220123 0.062499 0.288975 0.281987 
l2294 -0.259540 -0.075511 -0.217249 -0.212462 -0.133180 0.136599 0.165194 0.135031 -0.123176 -0.235028 
u24 0.037165 0.038752 0.168527 0.133846 0.277862 0.043680 -0.273893 -0.176200 0.139248 -0.211096 
u969 0.012693 -0.130137 0.089477 0.251667 0.199514 0.071156 -0.148334 -0.157475 -0.031661 -0.095417 
u390 0.010140 0.145430 0.240139 -0.144976 0.284159 -0.089969 -0.125085 -0.055698 0.013565 -0.051492 
u146 0.080281 0.095942 0.034483 0.136002 0.118386 -0.021680 -0.133947 -0.285076 -0.009274 -0.225684 
u266 0.101230 -0.007535 0.065880 0.126245 0.352522 0.173656 -0.182703 -0.102150 0.122995 -0.258581 
u224 -0.065055 -0.034203 0.001539 -0.113803 0.199417 0.100308 -0.066266 -0.017664 0.023076 -0.324032 
l7847 -0.094686 0.124290 0.310182 -0.095024 -0.127243 -0.298492 -0.147034 -0.032684 -0.038596 0.027775 
l9681 0.149697 0.004709 -0.070070 0.049123 -0.323355 0.165190 0.121780 0.220750 0.025444 0.292342 
l2873 0.134220 0.256156 0.032705 0.099871 0.293479 0.029933 0.013040 -0.044826 0.188547 -0.047418 
l612 -0.079262 -0.123422 -0.080352 -0.194845 -0.197468 -0.124903 0.083390 0.066897 -0.046160 0.335973 
l1496 0.333166 -0.211625 -0.327802 -0.110694 0.115329 -0.383443 -0.205000 0.000451 0.195742 -0.057712 
u770 0.101943 0.075205 0.253557 0.118973 0.313699 0.061785 -0.138944 -0.132757 0.161943 -0.207770 
u646 0.131066 -0.136521 -0.107515 0.030384 -0.297943 0.139999 0.072578 0.214910 -0.010399 0.421154 
l7376 0.060007 0.074260 0.253168 0.006814 0.053902 -0.153276 -0.121022 -0.285832 0.091602 -0.084086 
u516 0.049845 0.170480 0.171028 0.009963 0.215133 -0.205268 -0.133746 -0.063502 0.108230 0.030618 
u1053 -0.074138 0.095525 0.210141 -0.152280 0.109546 -0.192516 -0.281767 -0.022571 0.039104 -0.098547 
u415 0.051742 -0.136769 0.090168 0.098218 -0.051330 0.076705 -0.130394 -0.189445 0.204717 -0.112433 
l7389 0.129809 -0.016440 0.002020 0.008968 -0.569230 0.161574 0.122229 0.136081 0.039133 -0.024864 
u498 -0.006985 0.099372 0.183019 0.145625 0.267780 -0.072304 -0.200891 -0.169647 0.012536 -0.151025 
l208 -0.095116 -0.129758 -0.226287 -0.247160 -0.211615 -0.192316 -0.142714 0.054317 0.040671 0.032442 
u519 -0.229764 0.053152 0.056631 -0.216106 -0.175532 -0.263655 -0.193936 -0.024720 0.026284 -0.123638 
l5796 0.174403 0.054044 -0.113177 -0.397493 -0.164891 -0.367182 0.227321 0.082237 0.268148 -0.023647 
u807 0.014645 0.080296 0.011756 0.047473 0.328995 -0.121516 -0.230651 -0.070444 0.160420 -0.188986 
u1070 -0.056947 0.156869 -0.060807 -0.013117 0.219329 -0.106738 -0.022083 -0.224032 0.055042 -0.119676 
u910 0.036474 0.056081 0.214968 0.151585 0.283195 0.209519 -0.133016 -0.137184 0.168939 -0.161619 
u859 -0.035249 -0.145247 0.054458 0.204014 0.257182 0.196047 -0.098625 -0.144954 0.163238 -0.270685 
u961 0.020852 0.087875 0.152698 0.038296 0.206335 -0.131984 -0.358244 -0.020587 -0.066308 -0.067028 
u511 0.173055 -0.091343 -0.033468 0.135359 -0.100538 -0.039255 -0.231384 0.010647 -0.054341 0.171680 
u406 -0.036554 -0.005047 0.174306 0.075285 0.124670 0.035626 -0.301284 -0.167514 0.085532 -0.050600 
u645 -0.044258 0.156415 0.147175 0.122510 0.327179 -0.004323 -0.229989 -0.107941 0.078939 -0.169951 
l7807 -0.010840 -0.071854 0.025973 -0.321105 0.028292 -0.015117 -0.186677 0.096931 -0.065565 -0.046877 
l1239 -0.076862 0.114031 0.184839 -0.158041 0.175536 -0.290951 -0.085431 0.031963 -0.160201 0.005438 
u87 0.100067 -0.124583 -0.118582 -0.044561 -0.205121 0.074518 -0.076547 -0.174828 0.272312 -0.010195 
l1268 0.217418 0.022754 -0.240112 -0.184654 -0.413839 0.046315 0.070321 0.229800 0.135059 -0.039838 
l5238 0.050806 -0.160338 0.262123 -0.141237 0.205660 0.067032 -0.029108 0.106014 -0.296757 0.350580 
u755 0.088222 0.124746 0.258858 0.200081 0.284772 -0.000745 -0.144099 -0.208137 0.130026 -0.243540 
u947 -0.005959 0.165526 0.094082 0.114729 0.259432 -0.084152 -0.152829 -0.253908 0.075459 -0.053624 
u436 -0.007033 -0.258459 -0.117909 0.124121 0.053074 -0.204945 -0.142291 -0.187994 0.163410 0.047710 
u618 -0.108039 0.233074 -0.052693 -0.220646 0.035380 -0.047173 -0.021908 -0.164926 -0.151349 0.095798 
l2271 -0.225984 -0.119333 -0.325061 -0.115972 -0.045531 0.173729 0.134350 0.146898 -0.101980 -0.362414 
u896 -0.069955 0.285528 0.074892 -0.183691 0.071242 -0.126051 -0.180388 -0.138275 0.101024 -0.038289 
u513 0.132073 -0.167405 -0.067523 0.021587 -0.104342 0.056569 -0.079417 0.011197 0.180015 0.223476 
u890 0.138636 -0.044596 0.111164 0.108884 0.136637 -0.064069 -0.125523 -0.083443 0.128513 -0.285215 
u204 -0.047522 -0.066840 -0.164837 -0.287622 -0.322661 -0.148181 0.138690 0.114429 0.039502 -0.011217 
u543 0.158581 0.106724 0.181598 -0.029822 0.104057 0.073328 -0.112298 0.026608 0.209202 -0.079627 
u767 -0.129660 0.125493 0.280991 0.111605 0.162113 0.043639 -0.085668 -0.148468 0.165182 -0.168620 
l9471 0.181875 -0.062485 -0.061113 -0.114770 0.020439 -0.295695 -0.253244 -0.001990 0.056648 0.110755 
u483 0.191168 -0.010415 0.082967 0.004974 0.244063 -0.080442 -0.251763 -0.154742 -0.045295 -0.139875 
l7059 -0.185630 0.078759 0.176595 -0.274164 0.007675 -0.155551 -0.101155 -0.023944 0.009603 0.024459 
l2244 0.242570 -0.048501 -0.134036 -0.153930 -0.191383 0.047903 0.026528 -0.110264 0.233562 0.061445 
l5502 0.276483 -0.203634 -0.296499 -0.056511 -0.213108 -0.103256 -0.082165 -0.145662 0.012934 -0.015423 
u82 -0.117183 0.181824 0.064048 0.037001 -0.179388 -0.180850 -0.095646 0.059279 0.024035 0.045271 
l3415 0.056654 0.076538 0.196547 0.140951 0.281029 0.016450 -0.236318 -0.224184 -0.051894 -0.160775 
l3776 0.176877 0.047454 0.246385 -0.180270 0.041342 -0.141368 -0.048243 -0.315731 -0.061351 0.006741 
u109 0.037768 0.086712 0.234825 -0.035967 0.270137 -0.099726 -0.195725 -0.140746 0.035818 -0.086496 
l1636 0.093112 -0.021494 -0.271824 -0.079769 -0.015470 -0.184871 -0.052045 -0.070644 -0.026414 0.135680 
u559 -0.014760 -0.001049 0.276419 0.159629 -0.107406 -0.080298 -0.063800 -0.011202 0.095603 -0.133807 
u784 -0.051174 0.039494 0.168261 0.010550 0.127677 -0.156963 -0.127688 -0.162088 0.198005 0.056904 
u317 -0.025998 0.193622 -0.095089 0.168447 0.131138 -0.049435 -0.212303 -0.182501 0.002413 -0.093649 
l6901 -0.030414 -0.035511 0.190849 0.192048 -0.043084 -0.056279 -0.102924 -0.161104 0.268848 -0.059257 
l6418 0.031832 -0.022981 0.120474 0.222697 0.263386 0.208725 -0.168117 -0.214630 0.163997 -0.240537 
l1074 0.159025 0.284069 0.000281 0.083957 0.083607 -0.038501 -0.010445 -0.081271 0.278460 0.036301 
u673 0.094250 0.056184 0.100959 0.040677 0.218601 -0.108403 -0.275533 -0.154047 0.008572 -0.001211 
u85 0.048673 -0.167310 -0.323959 0.295143 -0.098408 -0.049553 0.352170 -0.156777 -0.137432 -0.079430 
l7076 0.104255 -0.112780 -0.039600 0.092801 -0.303215 0.118860 0.149746 0.308345 0.053657 0.229794 
l4293 0.236439 -0.063525 -0.315452 -0.150023 0.079974 -0.409612 -0.144017 0.086226 0.137601 -0.046607 
u980 -0.058531 0.213563 0.164825 -0.214741 0.108562 -0.087787 -0.156465 -0.166700 0.097383 0.026900 
u838 0.039778 0.001328 -0.135326 -0.180473 -0.080031 0.208860 -0.046114 0.171650 -0.025422 0.199705 
l5869 0.169861 0.063491 0.281973 0.071665 0.304578 -0.080379 -0.142461 -0.265899 0.025963 -0.179846 
l7146 -0.201407 0.077754 0.100149 -0.289946 -0.111572 -0.188478 -0.125443 0.008664 0.098030 -0.031181 
u95 0.070975 -0.057566 0.137511 0.198626 -0.231150 0.102529 0.124405 0.071158 0.353338 0.344779 
l204 0.186416 -0.049752 0.106259 0.182126 0.222141 -0.015779 -0.312828 -0.238815 -0.052187 -0.171984 
u228 0.085693 0.095919 0.275004 -0.043209 0.209762 0.023100 -0.252442 -0.203026 0.133126 -0.025853 
u315 0.337536 -0.110750 -0.023571 -0.068006 -0.286947 0.020193 0.095238 -0.016455 0.131007 0.143242 
u261 -0.003662 -0.057377 0.051430 0.199162 -0.127964 0.065489 0.091609 -0.003779 0.365850 0.021578 
u309 -0.033672 0.154213 0.176436 -0.271027 0.318279 -0.041480 -0.072647 -0.033364 -0.029502 0.059957 
u782 -0.175409 0.155238 -0.005753 -0.192770 -0.167419 -0.274158 0.150883 0.072033 -0.088625 0.309055 
u482 -0.106273 0.058083 0.026915 0.187105 0.323254 0.026103 -0.199114 -0.205503 0.005720 -0.109789 
l9108 0.112845 -0.072710 0.142210 0.081638 -0.217590 0.142011 0.152783 0.124183 0.398179 0.342246 
u484 0.183819 -0.187042 -0.003581 -0.012886 -0.268993 0.109407 -0.005131 -0.163399 0.201728 0.117496 
l7388 -0.048747 -0.047134 0.131001 -0.337689 -0.148747 -0.066532 -0.119666 -0.075960 0.103135 0.090983 
l4624 0.053157 0.081943 -0.072083 0.194702 -0.239491 -0.056636 0.196105 -0.004514 0.161236 0.328725 
l8280 0.168689 -0.117079 0.087923 0.053564 -0.333428 0.097235 0.142094 0.240286 0.019447 0.330732 
u1031 -0.058261 0.218066 0.043611 0.011633 0.090645 0.152831 -0.035642 0.078286 -0.127277 -0.089139 
u788 -0.091960 -0.042184 0.162555 0.188575 0.286149 -0.037645 -0.244735 -0.166110 0.047195 -0.169686 
u797 0.114865 -0.049657 0.138209 -0.023793 0.238048 0.090088 -0.252952 -0.219210 0.103917 -0.042841 
u1039 -0.050109 -0.083849 0.025457 0.222819 0.151570 0.125469 -0.089763 -0.189911 0.259851 -0.143636 
u675 0.028625 -0.100857 0.110750 0.249492 0.182480 0.010835 -0.095678 -0.097838 0.174827 -0.318574 
u30 0.187768 -0.017293 0.234473 0.070748 0.180381 -0.047476 -0.204914 -0.236599 -0.199785 -0.088878 
u827 0.039005 0.127758 0.267031 0.164734 0.242809 0.035065 -0.275463 -0.175051 -0.000340 -0.063419 
l4167 -0.070401 0.185424 0.072174 0.284415 0.058806 -0.200965 -0.176328 -0.054296 0.052462 0.136085 
l9639 0.078396 -0.022508 0.207482 0.023787 0.046408 0.071358 0.006950 0.062480 -0.245210 0.313067 
l5026 0.251818 -0.287247 -0.120398 -0.087164 -0.316960 0.058111 0.048817 -0.064021 0.050363 0.029510 
u926 0.088378 0.113594 0.220848 0.107639 0.198666 0.161461 -0.119856 -0.014197 -0.021979 -0.215086 
u60 0.079820 0.012504 0.107767 -0.120241 0.064689 -0.175162 -0.203498 -0.207115 0.005901 -0.043183 
u528 0.293983 0.361507 0.223838 -0.078422 -0.208433 0.003601 0.151853 0.076432 0.017702 -0.175860 
u907 -0.332765 0.134502 -0.357007 -0.217300 -0.154594 0.160785 0.346591 0.118442 0.023704 0.035987 
u1036 0.101968 0.148666 0.083405 0.177136 0.270509 -0.008957 -0.121125 -0.124100 0.207180 -0.206043 
u875 0.055304 0.020490 0.159024 0.109624 0.152726 -0.040447 -0.296891 -0.179078 0.045763 -0.368938 
u723 -0.126987 0.201333 0.210021 0.059977 0.148263 0.000102 -0.232679 -0.119879 -0.021908 -0.020822 
u220 -0.045451 0.017393 0.210469 -0.104787 -0.002414 -0.213469 -0.186854 -0.252400 0.129239 0.052617 
l6015 0.232181 -0.376504 -0.180423 -0.029959 -0.324339 0.116869 0.047564 -0.059630 0.025752 0.021602 
u217 0.209027 0.081338 0.048824 -0.000380 -0.020352 0.039524 -0.042667 -0.232341 0.221246 -0.070847 
u557 0.038830 -0.003373 0.127211 -0.092029 -0.223407 0.107678 -0.074938 0.079933 0.391710 0.393826 
u815 0.117809 -0.057179 0.205048 0.038483 0.171343 0.000662 -0.151394 -0.197115 -0.208355 0.124572 
l111 -0.249378 -0.123378 0.003501 -0.100353 -0.023898 0.173844 0.241970 0.116055 -0.228288 -0.046597 
u118 -0.032545 -0.003470 0.247485 -0.106917 0.080562 -0.119144 -0.111580 -0.234051 0.045523 -0.166428 
u1082 0.060581 -0.059771 0.306330 -0.466517 -0.208526 0.107627 0.044840 0.389653 0.028727 0.375571 
u165 0.009223 0.123421 0.241023 0.227599 0.299090 0.022182 -0.235908 -0.186758 0.102271 -0.126215 
l146 -0.130024 0.028627 0.166409 0.148883 0.348715 0.033493 -0.089473 -0.155839 0.170103 -0.098478 
u499 0.155293 0.036037 0.063274 0.255176 0.267901 -0.058699 -0.096459 -0.161539 0.024276 -0.178366 
u123 0.099277 0.180626 0.071881 0.055974 0.255787 -0.043335 -0.147396 0.009236 0.021423 0.124767 
l3106 0.290904 0.029881 -0.177954 0.062632 -0.003491 0.307436 0.386167 0.022074 -0.462159 0.054690 
l4968 -0.085390 -0.123843 0.198403 0.221908 0.233533 0.199524 -0.113610 -0.193314 0.037836 -0.242972 
l3593 0.196652 0.074658 0.136492 0.047568 0.140833 -0.041612 -0.065692 -0.302252 0.134707 -0.166234 
l9842 -0.185127 0.023355 0.084003 -0.061054 0.010298 -0.256170 -0.269689 -0.203011 -0.120598 -0.045981 
u344 0.024372 -0.093527 0.024627 0.138565 -0.220129 -0.011472 0.222741 0.187804 0.082997 0.423431 
l572 0.083077 0.062209 0.111736 0.239633 0.203982 0.049108 -0.242594 -0.239669 0.136606 -0.132979 
u288 -0.325765 -0.058216 -0.296296 0.017087 0.107607 0.234104 0.240509 -0.084105 0.044008 -0.032507 
u367 -0.036866 0.194764 0.165324 -0.079064 0.032739 -0.257091 -0.058084 -0.068680 0.101493 -0.169923 
u300 -0.052190 0.120473 0.119329 -0.043362 0.328251 0.077123 -0.125644 -0.147385 0.150989 -0.124592 
u402 -0.092201 0.062594 -0.086489 -0.199834 0.044338 0.016904 0.206951 -0.119339 -0.344922 0.118444 
u181 0.072176 0.007015 0.146951 0.003345 0.304029 0.066819 -0.181545 -0.244154 0.141827 -0.132131 
u529 0.060465 0.023240 0.088477 0.210979 0.346561 0.061531 -0.236738 -0.111398 0.147510 -0.303580 
u129 0.109504 -0.224313 0.171388 0.328620 -0.111251 -0.011057 0.125716 0.286899 -0.056288 0.094682 
l652 0.174356 0.119499 0.118671 0.128635 0.302091 0.060209 -0.131577 -0.169401 0.188125 -0.184128 
u106 0.003591 0.088196 0.234250 0.192332 0.310140 -0.018334 -0.193845 -0.139619 0.037952 -0.270122 
l3374 0.181586 -0.076848 -0.125511 0.048480 -0.280703 0.126106 0.084594 0.167438 -0.004891 0.382258 
u342 -0.138587 0.065054 0.246353 0.000262 0.253903 -0.109340 -0.162212 -0.038441 0.048906 0.098064 
l5931 0.291633 -0.153028 -0.056167 -0.026000 -0.423699 0.234888 0.163814 0.047115 0.166099 0.190213 
u706 -0.310921 0.352474 -0.117589 0.314707 0.198577 -0.125709 0.113872 -0.373823 0.060460 0.275201 
u709 -0.198209 -0.234398 -0.059243 -0.057964 0.042640 0.101873 0.153156 0.233047 -0.144559 -0.021396 
u943 0.118324 0.154606 0.011937 -0.062445 0.076021 -0.201353 -0.341910 0.051087 -0.003985 -0.035785 
u545 0.142072 -0.406848 -0.116435 0.125396 -0.062163 0.008884 -0.134791 -0.134442 -0.044038 -0.022465 
l9255 -0.259269 -0.012361 0.165507 -0.144147 0.050437 -0.124587 0.106818 -0.030136 -0.096085 0.013958 
u576 -0.297677 -0.007373 -0.071245 -0.274093 -0.052271 0.122348 0.352623 0.170388 -0.050627 -0.211979 
u104 -0.011414 0.036907 -0.003764 0.288769 0.182729 0.073027 0.069583 -0.142461 0.202789 -0.076561 
u783 0.088403 -0.092857 -0.189689 0.014387 -0.121113 -0.088208 -0.080675 0.009421 0.062133 0.348399 
l9744 0.050758 0.116958 0.213759 0.186949 0.317427 0.098874 -0.251637 -0.219545 0.081394 -0.136899 
u183 -0.074432 -0.137336 -0.285055 -0.160810 -0.112014 -0.261836 -0.016064 0.139134 -0.117476 0.033953 
l2038 -0.132749 0.173789 -0.004312 0.091528 0.073848 -0.115143 -0.142642 -0.144073 0.277763 0.025027 
u467 0.125799 -0.017578 0.012966 0.228349 0.280634 0.154288 -0.071479 -0.051002 0.231772 -0.237579 
u1022 0.488097 -0.089316 -0.273741 0.035361 -0.198369 -0.145512 0.092265 0.032077 -0.110245 0.218297 
u553 -0.160033 0.027021 0.121056 -0.052393 0.029024 -0.188571 -0.184693 -0.204253 0.106009 -0.076561 
u1021 0.000013 -0.159006 0.018726 0.163819 -0.088552 0.037637 0.161108 -0.053567 0.128777 0.249721 
u638 0.299522 -0.103981 -0.037957 -0.087873 -0.083785 0.077704 0.080904 0.074482 0.280815 0.147195 
u530 0.062529 0.125449 0.083321 -0.017271 0.198718 0.089773 -0.276001 0.058281 0.112244 -0.112719 
l6802 -0.090822 -0.280244 -0.130141 -0.015001 -0.100979 0.111653 0.386177 0.072089 -0.233382 0.070620 
u116 -0.146696 0.070178 -0.462619 -0.143487 0.231988 0.149566 -0.200721 -0.231698 -0.104813 0.066679 
u796 0.166018 0.201216 0.125950 0.110996 0.271148 -0.031541 -0.213312 -0.165233 -0.068136 -0.051498 
u1002 -0.281365 -0.017757 -0.070227 -0.224963 -0.049959 0.091010 0.287691 0.175803 -0.148143 -0.144653 
u98 0.149822 -0.136720 -0.108857 -0.009081 -0.352531 -0.063432 -0.055830 0.114114 0.140913 0.129476 
u772 -0.160524 -0.012661 0.132515 0.100476 0.293049 -0.017103 -0.182185 -0.050981 -0.019946 -0.133595 
u864 0.138240 0.125153 -0.034453 -0.055948 -0.041337 -0.379504 -0.021653 0.194762 -0.170796 0.140735 
u871 0.309217 0.032062 0.107406 0.064523 -0.097214 0.021416 0.132598 0.079851 0.279973 0.294350 
l8239 -0.013520 0.212346 0.259773 -0.043874 0.252268 -0.202220 -0.145163 -0.141012 -0.011047 0.019654 
u316 -0.107815 0.037185 -0.247646 0.368414 -0.058279 -0.122002 -0.084463 0.175087 -0.060204 0.292566 
u905 0.168055 -0.260612 -0.337079 -0.209518 -0.199978 -0.297550 -0.026634 -0.002591 0.034145 -0.099971 
u918 -0.081386 0.013911 0.070023 0.253075 0.190755 0.122476 -0.025267 -0.125751 0.215689 -0.249217 
u400 -0.006830 0.106757 0.198124 0.109196 0.251157 0.171230 -0.044924 -0.189991 0.148527 -0.152714 
l9250 -0.105819 0.319455 -0.029404 0.183142 -0.243602 -0.130860 0.213103 0.194327 -0.001064 0.000180 
u867 0.028798 0.135641 0.205310 0.109235 0.290756 -0.106170 -0.225435 -0.198501 0.125672 -0.203113 
u999 0.006694 -0.036617 0.087252 0.179222 0.172799 0.058700 -0.197640 -0.185160 -0.026025 -0.076480 
u887 0.134416 0.070865 0.193576 0.237053 0.065263 -0.091985 -0.206080 -0.125135 -0.047115 0.029224 
u1052 -0.041004 0.152196 0.131113 0.187503 0.295537 0.082133 -0.232248 -0.226357 0.063481 -0.164315 
u694 0.210222 0.067390 -0.162250 -0.277320 0.024082 -0.151166 -0.124032 -0.023061 -0.084246 0.194075 
l4890 -0.070648 -0.246049 -0.110638 -0.029915 -0.013757 0.124323 0.101322 -0.028729 0.142040 -0.087937 
u746 0.040793 0.194715 0.266659 0.049638 0.271425 -0.118212 -0.315057 -0.092168 0.034985 -0.029213 
l6147 0.220834 0.143517 -0.091058 0.220555 -0.133817 -0.058414 0.060752 -0.116333 -0.534044 -0.324748 
l7195 -0.164963 0.068539 0.006360 -0.228829 -0.337440 -0.166374 -0.111750 0.012578 -0.011544 -0.093830 
u186 0.028434 0.031408 -0.046360 0.241056 0.020962 0.127817 0.079484 -0.029583 0.165607 0.062174 
u496 0.015761 0.087659 0.246958 0.074494 0.248676 0.080394 -0.278615 -0.027829 0.072770 -0.199348 
u169 -0.426644 -0.036080 -0.013900 -0.024047 -0.052217 0.260354 0.131804 0.072477 -0.304610 0.098965 
u714 -0.001845 0.255452 0.028520 0.171819 0.275343 -0.128044 0.002747 -0.142311 0.054982 -0.126352 
u637 0.132539 -0.053128 -0.176430 -0.262154 0.011904 -0.197015 0.027902 -0.013351 -0.093041 0.047420 
l3473 0.184704 0.041111 0.251511 0.066709 0.123786 -0.035387 -0.175695 -0.230385 -0.027036 -0.203219 
l3918 -0.081197 0.061356 -0.265525 0.218454 -0.036583 -0.263156 -0.102072 0.109850 -0.062218 0.318784 
u1027 -0.140452 0.101666 0.369779 0.041004 0.085160 -0.215824 -0.205079 -0.190808 0.089728 -0.050343 
l9039 0.278503 -0.148155 -0.049783 0.053601 -0.134187 0.111179 0.159690 0.164371 0.028396 0.327298 
u899 0.047368 0.049075 -0.157014 -0.191257 -0.078804 -0.312762 0.035773 -0.216817 0.015871 -0.020673 
l6220 0.210601 0.043428 -0.091751 0.185634 0.084885 0.026733 -0.088565 -0.004887 0.306979 -0.132460 
u621 0.023848 -0.035269 0.101798 0.222109 0.286843 0.156044 -0.144990 -0.194753 0.205732 -0.248926 
u737 0.023732 -0.003743 0.154255 0.133396 0.062409 0.047266 -0.043777 -0.122095 -0.050177 -0.038211 
u547 0.087807 -0.046439 0.172754 -0.010055 0.165698 -0.047318 -0.270900 -0.062027 0.021986 0.055880 
u474 0.096948 0.129488 0.185121 0.248524 0.293223 -0.008633 -0.259740 -0.125893 0.013938 -0.223403 
u48 -0.085403 0.213731 0.080798 0.106929 -0.250052 -0.206233 0.245622 0.168071 0.118736 0.064583 
u492 -0.038019 0.125070 0.267297 -0.163924 -0.071078 -0.106372 -0.025069 0.000615 -0.220740 0.024883 
u934 0.103805 0.177078 0.237353 0.025476 0.282519 -0.148346 -0.155733 -0.075014 0.156171 -0.081400 
u438 0.142584 0.155085 -0.054734 0.260734 0.127819 0.054010 -0.020159 -0.008023 0.254953 -0.034582 
l586 0.114905 0.078029 0.301809 0.025115 0.184004 -0.006898 -0.148326 -0.269471 0.087279 -0.101783 
u311 0.044088 0.082655 0.266489 0.028241 0.342417 -0.051622 -0.109166 -0.205539 -0.001144 -0.148747 
u676 0.129069 0.043077 0.206329 0.116801 0.140020 -0.142273 -0.273270 -0.191278 0.006630 -0.225360 
u143 0.168157 0.180119 0.130628 0.100663 0.168882 -0.115453 -0.050197 -0.060540 0.019984 -0.035268 
l2209 -0.001524 -0.134413 0.035147 0.054665 0.187813 0.115597 -0.016669 -0.404025 0.055149 -0.137726 
u812 0.130554 0.103949 0.175768 0.124644 0.193485 -0.016306 -0.254215 -0.278642 0.153964 -0.049707 
u96 0.024758 0.027087 0.159138 0.201979 -0.055007 0.014442 -0.078019 -0.074662 0.360530 -0.038446 
u442 0.310000 -0.053308 -0.119173 0.290592 -0.122026 0.032127 0.064589 0.174170 0.061004 0.133559 
u369 -0.132978 -0.114987 -0.075232 0.122575 -0.008046 0.159693 -0.164629 -0.135383 0.161020 0.009666 
u987 -0.034074 0.039716 0.238814 -0.045030 -0.203371 0.067265 0.071131 0.159754 0.240379 0.196760 
u958 -0.123112 -0.055027 0.151613 0.065572 0.228239 -0.115218 -0.211009 -0.196705 -0.013339 -0.088282 
u293 0.088290 0.055522 0.347265 0.144339 0.173135 -0.060307 -0.135895 -0.075136 -0.046257 -0.103252 
u257 0.098590 0.066778 -0.226349 -0.232344 -0.150783 -0.021296 -0.009027 -0.192640 -0.043430 0.217326 
u319 -0.159211 0.180055 0.200614 -0.144401 0.011682 -0.235530 -0.142196 -0.053234 0.017438 0.001816 
u72 -0.105633 0.010224 0.208033 0.114358 0.109050 -0.078049 -0.327376 -0.236062 0.024487 -0.099265 
l3436 -0.042331 0.100323 0.061140 -0.246112 0.166636 0.057811 0.017781 -0.122075 -0.175898 0.259068 
u481 -0.004896 -0.201072 -0.328269 0.050277 -0.085707 0.217294 0.412451 0.041809 -0.230342 -0.097014 
u1045 0.151258 0.211754 0.223130 0.111880 0.177095 -0.017829 -0.258416 -0.091039 -0.218057 -0.117213 
u633 0.210541 0.138686 0.201012 0.069075 0.256453 -0.007030 -0.120162 -0.227088 0.061584 -0.162687 
u542 0.180787 0.226818 0.120606 -0.029354 -0.071520 0.120488 -0.134800 0.080837 0.177625 0.117028 
u679 0.111978 0.165009 0.069200 0.103919 0.223357 0.100160 -0.137986 -0.099092 0.234753 -0.152945 
l5114 0.192545 0.162446 -0.071451 0.212793 -0.106312 -0.046310 0.058031 -0.130859 -0.500062 -0.311307 
u944 0.149252 -0.112488 -0.000946 0.047602 -0.567098 0.245688 0.179245 0.118774 0.035721 0.022160 
l9386 0.065583 0.114429 0.132995 0.144117 0.288061 -0.023363 -0.104086 -0.174331 0.265616 -0.198893 
l4920 0.164390 0.162777 0.070980 -0.002479 0.278403 -0.050917 -0.223715 -0.172754 0.077119 -0.202508 
l1829 0.137121 0.234327 -0.015492 -0.237350 -0.024189 0.050008 -0.113841 -0.256024 -0.034882 0.089936 
l321 -0.186000 0.104855 0.236113 0.079007 0.113008 -0.141546 -0.238568 -0.143554 0.029477 -0.117516 
u828 -0.020894 -0.040989 0.142727 0.177896 0.279630 0.240266 -0.111640 -0.016911 0.146773 -0.284451 
u328 0.072770 0.121017 0.162763 -0.069613 0.107941 -0.065847 -0.179730 -0.316693 -0.064950 0.062434 
l1626 0.112469 0.001701 0.039444 -0.105795 -0.211023 0.110213 -0.275501 0.029314 0.413208 0.364563 
u769 -0.170474 -0.366384 -0.211191 -0.037337 -0.074785 0.157321 0.345878 0.095836 -0.200413 0.045433 
l1149 0.125867 0.087545 0.157782 0.256764 0.160382 -0.015374 -0.338609 -0.161249 -0.045518 -0.070419 
u906 -0.069501 0.123324 0.152646 0.107487 0.090318 -0.065681 -0.304480 -0.260995 0.097026 -0.102504 
l1794 0.165433 -0.272826 -0.309986 0.131864 -0.268375 0.062145 -0.147219 -0.002754 0.103768 -0.144108 
u813 -0.169420 0.104749 0.225755 -0.167528 -0.063852 -0.182332 -0.182653 -0.068168 0.115527 -0.032820 
u605 0.041143 0.217976 -0.043089 0.137415 -0.094776 -0.188875 -0.041819 -0.002396 -0.074571 0.267570 
l9837 0.094779 0.100431 0.261498 0.092823 0.113995 -0.121057 -0.123937 -0.264417 0.124060 -0.102847 
u142 0.295295 0.022254 0.171483 0.045567 -0.207139 0.153138 0.213705 0.331867 -0.044423 -0.005790 
l5923 -0.125698 0.091606 0.297032 0.172497 0.095555 -0.057341 -0.165204 -0.098249 -0.110857 -0.026233 
l2893 0.018494 -0.248883 -0.261908 -0.203583 -0.074623 -0.168169 0.019382 -0.022281 -0.063411 0.122665 
l8890 0.286511 0.047466 -0.010885 0.162805 -0.139088 0.183927 0.001101 0.173396 0.197690 0.030658 
u581 -0.066181 0.169275 0.119458 -0.318387 0.134517 -0.137383 -0.165576 0.061120 0.187413 0.017621 
u683 0.222040 0.036390 -0.293808 0.129828 -0.214400 0.227382 0.065486 -0.021571 -0.231927 0.223483 
l2094 0.065214 0.075102 0.219780 0.244676 0.204618 -0.029039 -0.244886 -0.123353 0.175342 -0.173830 
u1050 0.056436 0.088184 -0.201853 -0.106436 -0.228658 0.005501 0.054034 0.164527 0.054935 0.260251 
l1930 -0.115884 -0.070173 -0.067971 -0.297506 -0.243521 -0.145880 0.033152 -0.257460 0.033825 0.210497 
u820 -0.043386 0.079786 0.198596 -0.094547 0.033793 -0.179658 -0.292220 -0.111589 0.006787 -0.077449 
l3550 0.177348 -0.078409 0.061493 0.127837 0.177516 0.037274 -0.266595 -0.216328 -0.023044 -0.139366 
u588 0.156450 0.068324 0.261351 0.046042 0.279369 -0.013851 -0.132141 -0.237319 0.078261 -0.192705 
l4253 0.018938 0.105368 0.116882 -0.076131 -0.016396 -0.194288 -0.104295 0.050135 -0.036410 0.048359 
l5315 0.151229 -0.091714 -0.106081 0.034552 -0.342805 0.173621 0.050038 0.226034 -0.014641 0.402368 
u445 0.044204 0.106784 0.263999 0.169693 0.273229 -0.042436 -0.059165 -0.149620 0.120641 -0.195369 
u110 -0.176453 -0.276898 -0.251843 -0.097568 -0.037415 0.184179 0.369740 0.067434 -0.123236 0.013089 
u1067 0.268332 0.123767 -0.263501 -0.081053 -0.129215 0.162061 0.003342 0.305506 0.177977 0.070114 
u771 0.114686 0.002899 0.149358 0.166927 0.280839 -0.003591 -0.327085 -0.271507 0.057406 -0.217843 
u191 0.073179 0.052288 0.109389 -0.127672 -0.151684 -0.099969 -0.128341 -0.086783 0.108583 -0.150613 
u631 0.099579 0.066618 0.089054 0.067153 0.384840 -0.078194 -0.116186 -0.059256 0.029054 -0.306775 
u521 -0.015595 0.074152 0.322764 -0.031272 0.239223 0.144915 -0.072877 -0.108484 0.004294 -0.112309 
u1025 0.040377 -0.003654 0.154006 0.097276 0.289011 -0.053637 -0.269257 -0.243118 0.009341 -0.154072 
l8822 -0.357477 -0.025569 -0.066688 -0.286309 -0.113806 0.030606 0.379383 0.225066 0.026971 -0.259915 
u1072 0.172569 0.050113 -0.073497 -0.242043 -0.314339 0.137581 -0.216762 -0.059446 0.156265 0.160047 
u378 -0.048426 -0.061001 0.259671 -0.086086 0.126116 -0.135500 -0.222244 -0.208295 0.083163 -0.135722 
u648 -0.055153 -0.003542 -0.019253 0.163841 0.381610 0.055648 -0.071049 -0.144497 0.199610 -0.251266 
u668 -0.200676 -0.225383 -0.174645 -0.067123 0.003204 0.162684 0.326927 0.072185 -0.296603 0.016606 
l4658 0.130412 -0.163861 0.019194 -0.098358 -0.454632 0.146301 0.039137 0.036248 0.278535 0.238142 
l6724 0.131619 0.012186 -0.275669 -0.069770 -0.059531 -0.074774 0.054384 0.202287 -0.021683 0.065391 
u368 0.218257 0.033810 0.189654 0.130347 0.315530 0.043322 -0.146984 -0.123545 0.114407 -0.215819 
u296 -0.111039 -0.069238 -0.061673 -0.210842 0.007587 -0.224813 -0.032736 -0.268084 0.027251 -0.113997 
u669 0.254735 0.064619 0.068858 0.117040 0.067510 -0.031855 -0.032189 -0.066427 0.082334 -0.256516 
u414 0.133546 0.106401 0.107803 0.125752 0.336751 0.016618 -0.215968 -0.195482 -0.028439 -0.076048 
u76 -0.049352 -0.080491 0.081135 0.245105 0.297659 0.207066 -0.085406 -0.134994 0.137478 -0.281267 
u192 -0.060632 -0.456044 -0.244281 -0.107549 -0.153659 0.074878 0.371136 0.121284 -0.132759 0.105441 
l6542 0.207014 0.230240 -0.050417 -0.056060 -0.299300 0.395126 -0.387531 0.196694 0.051829 -0.019361 
u444 -0.044740 -0.050739 0.366771 0.112095 0.113857 -0.029220 -0.109762 -0.236649 -0.147138 -0.094330 
l1929 0.171106 0.161178 0.246180 0.155701 0.243442 -0.146129 -0.184239 -0.241627 0.097452 -0.155065 
u800 0.051658 0.149554 0.102597 0.216729 -0.305496 0.144761 0.028577 0.114563 0.219865 0.068513 
l509 -0.175047 -0.080951 -0.235647 -0.213477 -0.089608 0.254127 0.434480 0.152803 -0.257366 -0.003880 
u1071 -0.090800 0.184773 0.154695 -0.111225 0.041466 -0.295582 -0.043359 0.027761 -0.094506 -0.026525 
l6928 0.035619 -0.199673 -0.093217 -0.139443 -0.202818 0.030979 -0.000547 -0.019153 0.029305 0.141858 
u25 -0.186678 0.037597 0.142583 -0.399002 0.205223 -0.006874 0.040412 0.123198 0.031064 0.089205 
l8780 0.138636 0.043609 0.248433 0.095712 0.189308 0.070652 -0.167521 -0.259179 0.042912 -0.034875 
u382 -0.023378 -0.086957 0.146602 0.147753 0.268333 0.179780 -0.178897 -0.115809 0.116369 -0.229792 
u640 -0.164262 -0.088030 -0.364085 -0.123240 -0.041502 0.190956 0.132297 0.122316 -0.164255 -0.373384 
u832 0.231137 -0.218991 0.209854 -0.025977 -0.256181 0.105242 0.155639 0.019426 0.357860 0.219513 
u45 -0.186165 -0.217858 -0.190073 -0.192846 0.022785 0.188231 0.316403 0.197052 -0.278433 -0.100423 
u162 0.155592 -0.056115 0.117320 0.219602 0.155617 0.179771 -0.020740 -0.081820 0.188865 -0.219900 
u900 -0.239197 0.036689 0.052611 -0.283313 -0.249735 -0.103161 0.048914 -0.131978 0.063714 0.107889 
u1078 0.169261 -0.435117 -0.186947 0.000323 -0.082035 -0.023614 0.293741 -0.189543 -0.249702 0.004979 
u91 0.066166 0.005881 0.200211 -0.179097 0.276334 -0.049600 0.096846 -0.164725 -0.037359 -0.107560 
l9540 0.142209 -0.395038 -0.293590 0.024179 -0.341622 0.061289 0.068494 0.085418 -0.052741 -0.053264 
u75 0.103205 0.206728 0.110865 0.094681 0.243743 -0.052868 -0.041387 -0.197768 0.167889 -0.110187 
u917 0.003191 0.134451 0.121801 0.238362 -0.116258 -0.022672 0.111078 0.053707 0.272493 0.325962 
l4050 -0.213471 0.372486 0.005848 0.153901 0.020595 -0.178948 0.017884 0.031818 -0.116562 -0.105386 
u361 0.054198 -0.070004 0.242788 0.211612 0.039846 0.069250 0.069610 -0.111400 0.219236 -0.070283 
l246 0.039250 0.057352 0.203849 0.079603 0.305088 -0.068446 -0.255425 -0.159237 0.073353 -0.167376 
l7794 -0.226641 -0.206563 -0.179675 0.019811 0.019185 0.113043 0.282748 0.072976 -0.212199 -0.064231 
u451 0.090619 -0.040347 0.061467 0.144898 0.272775 0.158574 -0.193753 -0.196095 0.090251 -0.263988 
u556 0.051976 -0.032034 0.119650 0.110428 -0.225181 0.043070 0.139068 0.312858 0.093933 0.038307 
u1006 0.089468 0.114743 0.309072 -0.252349 0.111494 0.134945 -0.091285 -0.027330 0.263426 -0.035232 
l5300 0.017199 0.181680 0.227459 0.155089 0.275986 -0.044718 -0.222511 -0.154552 0.078033 -0.150843 
l4732 -0.080411 0.187196 0.065632 0.058489 0.085807 0.101293 -0.302786 -0.246746 0.034871 -0.076619 
l3381 0.071907 -0.052244 0.350283 -0.507865 -0.225756 0.120388 0.027786 0.424423 0.053767 0.410221 
u77 0.011796 0.048332 -0.009319 0.058830 -0.058376 -0.215064 -0.265602 -0.260216 -0.022724 0.085115 
u421 0.003084 0.035796 0.100775 0.117605 0.318957 0.007118 -0.147447 -0.242161 0.147005 -0.190561 
u130 0.237574 0.203822 0.246987 0.084501 -0.124997 -0.014246 0.052552 -0.044210 0.055246 -0.107929 
u518 -0.080559 0.070330 -0.223914 -0.260233 -0.063125 -0.004195 0.143537 -0.016245 -0.088035 -0.270577 
u658 0.058276 -0.156049 -0.029202 -0.290793 -0.342159 -0.024200 -0.011430 0.007061 0.120301 0.116548 
u661 0.005183 0.123756 0.144328 0.221024 0.317429 0.040660 -0.087898 -0.182626 0.195836 -0.093451 
l9030 0.063979 0.246978 0.015784 -0.172187 0.111624 0.006912 -0.126725 -0.249582 -0.151943 0.261014 
l4432 -0.172971 -0.342111 -0.277757 -0.081524 -0.069967 0.161478 0.338174 0.112701 -0.271501 0.052351 
u84 -0.013643 -0.027578 0.180088 0.035872 0.367349 -0.079945 -0.190323 -0.201682 0.153974 -0.099761 
u745 0.145517 -0.264666 -0.266370 0.040148 -0.218061 0.163374 0.111662 0.250920 -0.015143 0.242670 
l4353 0.167810 0.216839 0.188024 -0.144117 0.108682 -0.089747 -0.115525 -0.152240 0.017370 -0.130357 
u967 -0.009572 0.135866 0.094286 -0.166918 -0.195712 -0.147355 -0.171560 0.015918 0.121181 0.110872 
l174 0.095776 -0.069722 0.059547 0.021153 -0.009858 0.178679 0.077910 0.050748 -0.050185 0.287944 
u761 0.057132 0.099966 0.166146 -0.058300 0.121994 0.165365 0.000705 -0.059971 0.282071 0.070242 
u80 -0.018695 0.044639 0.313458 0.096978 0.216346 -0.061179 -0.165181 0.041817 0.106025 -0.073843 
u494 0.019813 -0.027456 0.192038 0.224755 0.272303 -0.026008 -0.252167 -0.095574 0.042151 -0.253645 
l6766 -0.150134 0.116507 0.177039 -0.036539 0.007744 -0.132490 -0.225100 -0.184839 0.012177 -0.137010 
l6809 -0.018115 -0.022177 0.321552 -0.033545 0.199632 -0.154608 -0.246153 -0.222067 -0.060804 -0.076159 
u184 0.006327 0.174579 -0.098626 0.047679 -0.155502 -0.187526 0.040368 -0.056574 0.144734 -0.309574 
l2494 0.214147 0.113640 0.140146 0.031069 0.171121 -0.078188 -0.162913 -0.257783 0.062334 -0.099470 
u1044 0.080879 0.120508 0.188305 -0.327745 0.232187 0.000131 -0.113815 -0.020962 -0.213798 0.236488 
u538 -0.086129 0.190403 0.160258 0.130189 0.278292 -0.063562 -0.217145 -0.189314 0.066077 -0.182338 
l5284 0.169259 -0.133111 -0.112463 0.010180 -0.337358 0.174907 0.078717 0.227827 -0.026741 0.425053 
u868 0.096414 -0.080232 0.115762 0.057387 0.234959 0.029537 -0.383966 -0.190253 0.012826 -0.053831 
u1029 0.039633 -0.165971 0.112498 -0.052353 0.054306 -0.170570 0.149750 0.196269 0.093928 -0.223932 
u163 0.067048 0.221323 0.031737 0.004758 0.296538 0.015123 -0.265498 -0.083677 0.043801 -0.037033 
l4894 -0.049310 -0.072671 0.076453 -0.253090 0.014137 -0.023667 -0.012729 -0.036834 -0.093138 0.316385 
u504 0.185133 0.162508 0.130704 -0.001198 0.300675 -0.076346 -0.056295 -0.210207 0.137330 -0.084273 
u925 -0.079864 0.076746 0.141606 -0.060594 0.312053 -0.212355 -0.157072 -0.091041 -0.164949 0.003809 
u754 -0.045340 0.229778 0.095386 -0.145091 0.056971 -0.191337 -0.223438 0.085349 -0.030262 -0.071260 
u663 0.085341 -0.114959 0.044169 -0.184109 -0.200890 -0.122665 -0.109492 -0.003223 0.330326 0.193832 
u993 -0.049252 0.062558 -0.305416 0.052777 0.084944 -0.030932 0.364790 0.084894 -0.238526 0.126748 
u231 -0.185573 -0.281513 -0.079804 -0.093049 0.240012 0.127275 0.222195 0.017905 -0.239654 -0.168802 
u565 -0.008163 0.044709 0.020540 0.171891 0.282619 -0.055791 -0.252213 -0.144241 0.062267 -0.000680 
l7091 -0.138768 0.140685 0.259466 0.080913 0.168647 -0.104846 -0.186227 -0.161736 0.165209 -0.026222 
l4335 0.009631 -0.012226 -0.154222 0.162610 -0.152954 -0.131157 0.094104 -0.121918 0.258732 0.109403 
u356 -0.102492 -0.205992 -0.180393 0.068310 0.020499 0.212970 0.175767 0.027478 -0.213453 0.020964 
l445 0.071844 -0.052198 0.349868 -0.507237 -0.225566 0.120293 0.027742 0.423941 0.053721 0.409707 
l7664 0.123693 0.047147 0.129271 0.167337 0.294333 0.057099 -0.200944 -0.195248 0.110242 -0.218191 
u32 0.140873 -0.031530 -0.006319 0.273634 -0.096201 0.044178 0.102138 0.234787 0.077503 0.357440 
l7303 0.233076 0.172820 0.173340 0.076914 0.127226 -0.133799 -0.010089 -0.002106 0.154449 -0.017939 
l407 0.127464 -0.498365 -0.320232 0.070924 -0.258762 0.060186 0.005988 0.010486 -0.032044 -0.085213 
u430 -0.087096 -0.080704 0.201674 0.220065 0.166918 -0.007656 -0.138665 -0.173928 0.020975 -0.189132 
u425 -0.123395 -0.381549 -0.257318 -0.083055 -0.102749 0.137011 0.347724 0.107974 -0.243658 0.022414 
u81 -0.190012 -0.194115 -0.262928 -0.057684 0.033025 0.214189 0.315523 0.146154 -0.296020 -0.027016 
l3681 -0.154229 -0.201309 -0.278694 0.100842 -0.009741 0.261570 0.362032 0.155863 -0.250064 -0.108350 
u889 0.139832 0.001746 0.205143 0.118624 0.356155 -0.117126 -0.164769 -0.162669 0.050227 -0.189215 
u922 -0.116543 -0.143529 -0.162108 -0.265817 -0.024063 -0.172694 -0.063800 -0.051030 -0.071093 0.177791 
u465 0.139494 0.112633 0.290460 0.007544 0.068767 -0.105369 -0.143623 -0.245419 0.060333 -0.063852 
u1003 0.069372 0.064267 0.144423 0.123338 0.181001 -0.035326 -0.208961 -0.142475 -0.059041 -0.029273 
u602 -0.150348 0.168947 0.173554 0.311101 -0.023072 0.088391 -0.203902 -0.072390 -0.040985 -0.099218 
l5917 0.147823 0.103617 0.098907 0.234712 0.334133 0.015226 -0.088911 -0.143220 0.225485 -0.162855 
l345 0.072024 -0.052199 0.350668 -0.508165 -0.225899 0.120483 0.027618 0.424722 0.053976 0.410410 
u239 -0.157220 0.115192 0.041078 0.173095 0.151488 -0.169288 -0.235472 -0.049127 0.155283 0.004759 
u572 -0.022022 0.104437 0.215524 0.067221 0.283226 0.058332 -0.158233 -0.205561 0.174854 -0.191881 
l401 0.192263 0.014512 -0.144530 -0.264245 -0.227035 0.012366 0.234053 0.130448 -0.059184 0.038220 
u250 -0.050697 -0.319392 -0.018922 -0.220055 0.037201 0.043202 0.023315 0.031698 -0.163011 0.069865 
u775 0.051011 0.151273 0.027847 0.196111 0.126851 -0.191068 -0.149337 0.027689 0.135979 -0.201398 
l448 -0.002046 0.122695 0.148738 0.238389 0.289249 0.072462 -0.272163 -0.171259 0.117641 -0.194506 
l4290 -0.242678 -0.235203 -0.299208 0.022727 -0.078952 0.280355 0.317945 0.152790 -0.210082 -0.046014 
u510 0.034300 -0.217403 0.361325 -0.248297 0.085019 0.022026 -0.039520 0.094739 -0.073648 0.017458 
l4040 0.123001 -0.012854 0.351689 0.063920 -0.261817 -0.106027 0.256331 0.181387 0.063100 0.290827 
u429 -0.000286 0.207373 -0.001670 -0.013438 0.074407 -0.196679 -0.265785 -0.037968 0.147360 0.009801 
u1023 0.137442 0.214103 0.249463 0.078028 0.139951 -0.074317 -0.140378 -0.283494 0.138455 -0.007653 
l2690 -0.117760 -0.047530 0.295074 -0.042064 0.261136 -0.187795 -0.107299 -0.076554 -0.020327 -0.013465 
u1017 0.104569 0.034338 0.135300 -0.007274 -0.005806 0.164143 0.156208 -0.074471 0.300521 0.300484 
l1922 -0.027266 -0.101611 -0.027140 -0.160043 -0.213497 0.090226 -0.011975 -0.077347 0.251651 0.161466 
l2564 -0.026747 -0.092461 0.022592 0.304981 0.249494 0.185737 -0.029860 -0.136301 0.149041 -0.297090 
u331 0.168342 -0.229838 -0.088166 -0.095004 -0.173484 -0.120190 -0.075526 0.159755 0.222752 0.240935 
l4113 -0.002205 0.083552 0.283016 -0.078260 0.252899 -0.225204 -0.270594 -0.011556 0.022104 -0.036991 
u991 -0.045515 0.026457 0.106229 0.230857 0.179695 0.125733 -0.168114 0.030665 0.193659 -0.288158 
u591 -0.323746 0.194574 -0.141509 -0.176347 -0.280716 0.178525 0.329995 0.031239 0.181338 -0.078241 
l7857 0.072067 -0.052186 0.350950 -0.508489 -0.226048 0.120548 0.027564 0.424978 0.054056 0.410675 
u173 -0.010346 0.108742 0.180661 0.190556 0.316842 0.074254 -0.169671 -0.113279 0.071299 -0.235711 
u948 0.069640 0.016293 -0.284395 -0.278249 -0.046499 -0.055269 -0.079633 0.106023 0.150093 0.043657 
u1055 -0.077673 0.151180 0.039129 0.031228 0.307262 0.068898 -0.070320 -0.198381 0.160894 -0.197086 
u939 0.246748 0.213464 -0.004348 0.026190 -0.126870 0.061248 0.068456 0.241346 0.218164 0.006530 
l8204 -0.001592 0.148522 0.160257 0.233659 0.319882 0.055989 -0.298500 -0.176810 0.079206 -0.186910 
u216 0.068138 0.197380 0.153227 0.175481 0.313667 0.048436 -0.115772 -0.044822 0.209612 -0.185311 
l818 0.184837 0.181893 0.162272 0.152992 0.252554 0.157222 -0.138712 -0.072454 0.049661 -0.162601 
u893 0.101549 0.015757 0.247745 -0.113051 0.148934 -0.071825 -0.280338 -0.152529 -0.032645 0.135078 
u938 0.104994 0.046243 0.161741 0.185261 0.118452 0.021893 -0.338847 0.014477 0.105538 -0.049379 
u197 -0.126264 -0.204288 -0.085307 -0.205359 -0.123552 0.082707 0.282163 0.128079 -0.244832 0.104746 
u920 -0.044425 0.014107 0.250574 -0.228507 0.094142 -0.244685 -0.226983 0.025679 0.017908 -0.104316 
l7264 0.212044 0.207567 -0.021478 -0.058544 -0.282831 0.450389 -0.402607 0.201827 0.049349 -0.038912 
u856 0.076164 0.120718 -0.077109 0.105957 -0.214390 0.082235 0.119864 0.222767 0.003651 0.261726 
u1030 0.011532 0.021346 0.247961 0.185879 0.012769 -0.053253 -0.043032 0.097353 -0.326346 0.150624 
u145 -0.102544 -0.101245 0.017211 0.201376 -0.004341 0.137782 -0.045240 -0.187200 0.224186 -0.305354 
l3819 0.112045 0.068686 0.097982 0.132286 0.173011 0.129956 -0.119618 -0.214754 0.131663 -0.161459 
u908 0.155667 -0.043379 0.052651 -0.042066 -0.237209 0.089185 0.093945 0.080835 0.337677 0.214642 
u811 0.160255 0.056861 0.046026 -0.026285 -0.149203 -0.044736 -0.013284 -0.178116 0.160916 -0.116412 
u174 -0.343779 -0.075693 -0.022582 -0.189344 0.023904 0.140958 0.294243 0.059892 -0.245847 -0.273583 
u351 0.073130 -0.056817 0.287662 -0.161355 -0.018990 -0.116545 -0.081122 -0.000407 0.147950 -0.064314 
l2453 0.166176 -0.002911 -0.231212 -0.016488 -0.046441 -0.190376 -0.227667 0.102993 -0.047471 0.291250 
u704 0.042658 0.116662 -0.091883 -0.163168 -0.097656 -0.030283 -0.104689 0.098163 0.184492 -0.084641 
u995 0.004844 0.144891 0.071042 0.124661 0.098351 -0.165251 -0.331742 -0.105170 -0.177132 -0.064479 
u872 0.010601 0.155524 0.128221 0.144543 0.183676 -0.149508 -0.167043 -0.153421 0.119997 -0.238601 
u141 -0.204157 -0.017707 0.254505 -0.272009 -0.126720 -0.233461 -0.093040 0.042181 0.071543 -0.041499 
u1077 -0.019703 0.005895 0.099470 0.168544 0.165606 -0.056652 -0.295860 -0.227169 0.125580 -0.025293 
u236 0.131888 0.089318 0.423243 -0.016431 -0.017098 -0.172659 0.036341 -0.224514 0.015620 0.070445 
u1056 0.079258 -0.060239 0.037659 -0.034702 0.063517 0.238215 -0.020385 -0.253826 0.228153 0.056059 
l4861 0.057622 0.116600 0.341631 0.061974 0.248101 0.091940 -0.185411 -0.170289 0.090569 -0.169552 
l1492 -0.009123 -0.033706 0.110618 0.249973 0.292382 0.219939 -0.132600 -0.150904 0.156189 -0.267490 
u998 0.214457 0.182221 0.294337 0.071131 0.045262 -0.124737 0.273227 0.033906 -0.047443 -0.040550 
u450 0.022363 -0.083551 0.099914 -0.049126 0.147926 0.166988 -0.401548 0.249497 -0.037073 0.452648 
l2362 -0.116790 -0.050999 -0.153061 -0.206230 -0.249488 -0.106721 -0.019519 -0.175185 0.059274 0.308119 
l7065 0.248659 0.132968 -0.147802 -0.169498 -0.050317 -0.148443 0.091473 0.093179 0.282662 -0.088527 
l8960 -0.175539 -0.137505 -0.146682 -0.110661 -0.056975 0.244615 0.338627 0.158006 -0.400842 0.120742 
u619 -0.156202 0.048206 0.270449 -0.201510 -0.053798 -0.182396 -0.224852 0.037633 0.045530 -0.121954 
l2297 -0.036482 -0.039653 -0.099180 -0.076975 0.023287 0.062855 -0.195404 0.085552 -0.092027 0.064004 
l6315 -0.133292 -0.472785 -0.150576 -0.140292 -0.108971 0.171619 0.324920 0.249648 -0.156635 0.179292 
u26 0.127588 0.005679 0.185718 0.143297 0.329403 0.069952 -0.204426 -0.160595 0.099099 -0.277003 
u321 0.064949 0.041257 0.079917 -0.242291 -0.062666 -0.271337 -0.002157 0.097318 -0.049364 0.183885 
u607 0.029947 0.044757 0.193524 0.020932 0.084179 -0.012198 -0.127770 -0.262737 0.091659 -0.215462 
u56 -0.046086 0.135476 0.162565 0.140935 0.168862 0.008570 -0.387133 -0.137915 -0.033361 -0.078561 
u873 0.007587 0.018147 0.072929 -0.131513 0.243025 0.039428 -0.289726 -0.064878 0.034878 -0.111399 
u346 -0.222755 -0.265386 -0.214463 -0.031763 -0.096234 0.176640 0.252164 0.130598 -0.220408 -0.008353 
u245 0.011062 0.004086 0.165665 -0.033829 0.015857 0.029790 0.180732 -0.185153 0.212189 -0.117617 
l9920 0.240076 -0.147596 -0.037374 -0.083829 -0.464428 0.163741 0.028443 0.047100 0.201826 0.179965 
l3164 -0.171293 -0.274719 -0.370799 -0.077452 -0.112244 0.256846 0.159788 0.207992 -0.193578 -0.244672 
u343 -0.223179 0.067153 -0.214097 -0.145751 -0.018028 0.112725 0.290457 0.149128 -0.082118 -0.290905 
l6200 0.183175 0.093383 -0.256907 -0.014340 0.030801 0.049890 -0.137330 0.072316 0.108883 0.057900 
l1786 0.015136 0.211388 -0.099127 0.296273 -0.050897 -0.255808 0.030282 -0.113206 0.098739 0.284931 
l599 0.205181 -0.465202 -0.197014 0.088721 -0.221017 0.141328 0.046932 -0.025035 -0.039564 -0.023767 
u209 -0.184164 -0.003767 -0.036102 0.013575 -0.218784 -0.287028 -0.070379 0.009684 -0.061006 0.015072 
l2769 -0.265753 -0.202561 0.055789 0.009496 -0.061826 -0.032320 -0.013603 0.134739 -0.139341 -0.005400 
u541 0.109803 0.101308 0.088768 -0.081194 0.072232 -0.318118 -0.044887 0.000880 -0.123283 0.112560 
l7330 0.004220 0.151158 0.155451 0.225933 0.301961 0.019838 -0.266982 -0.120597 -0.016376 -0.243774 
l4141 -0.036292 -0.087245 0.150874 0.007037 -0.218708 0.114055 0.171033 0.126632 0.380345 0.426672 
u865 0.051741 0.098907 0.281350 0.182871 0.188809 -0.100330 -0.278662 -0.165045 0.078215 -0.158658 
l2745 0.071972 -0.052227 0.350754 -0.508265 -0.225914 0.120530 0.027625 0.424803 0.053965 0.410460 
l1366 -0.330631 -0.008099 -0.084128 -0.205065 -0.035643 0.170557 0.297599 0.153031 -0.097891 -0.325983 
u1005 -0.017751 0.056963 0.217950 0.174758 0.320596 -0.164059 -0.269058 -0.196050 0.017835 -0.143398 
u34 -0.096896 -0.169599 0.239136 0.115274 0.218370 0.154510 -0.036330 -0.188433 0.052861 -0.253434 
l8624 -0.043876 0.172640 -0.145934 -0.019887 -0.184235 -0.218542 -0.131950 0.163683 0.034738 0.036452 
u526 0.006109 0.028866 0.029296 -0.276078 0.279645 -0.058708 0.007733 0.142416 -0.081902 -0.039405 
l1292 0.089139 0.042744 0.148506 0.065881 0.207442 -0.050259 -0.041350 -0.323639 0.137172 -0.155796 
u503 0.041061 0.117170 0.248314 0.186277 0.096700 -0.078271 -0.230268 -0.076217 -0.100851 0.156302 
u794 0.235226 0.125038 0.114615 -0.197180 0.284270 -0.127518 0.108292 0.101442 -0.022843 -0.074234 
l4201 0.121002 -0.207264 -0.078295 -0.168769 -0.316045 0.035506 -0.103327 0.030296 0.209457 0.133489 
u613 -0.164907 0.059922 0.033334 -0.167049 -0.393453 -0.133018 0.007432 -0.145243 -0.136848 -0.038662 
l4181 0.072004 -0.052257 0.350687 -0.508228 -0.225950 0.120503 0.027656 0.424780 0.053925 0.410431 
u810 0.023012 -0.006037 0.220459 0.173979 0.269627 0.238710 -0.091810 -0.184035 0.101913 -0.268005 
l5463 -0.173076 -0.086881 -0.147818 -0.080845 -0.219234 -0.294452 0.052214 0.124106 -0.028962 0.149249 
u306 -0.065171 -0.026017 0.122185 0.064049 0.310699 -0.005203 -0.241245 -0.190099 -0.014168 -0.103061 
l1076 -0.349893 -0.023586 -0.081314 -0.209223 -0.106347 0.186771 0.349619 0.194593 -0.138485 -0.262919 
u78 -0.058694 0.055362 -0.025312 0.063437 0.389605 0.121976 0.000684 -0.015782 -0.135863 -0.013184 
u527 0.034377 0.014039 -0.101112 -0.044600 -0.081233 -0.096000 -0.311691 -0.091052 0.236844 0.233756 
l4138 0.072036 -0.052346 0.350560 -0.508121 -0.225861 0.120451 0.027758 0.424674 0.053843 0.410355 
u978 0.047498 0.203711 -0.140348 -0.230010 -0.121062 -0.214984 -0.128227 -0.001330 -0.217409 0.172348 
l1066 0.286475 0.073763 -0.032490 -0.159226 -0.203622 0.137438 -0.158771 -0.034202 0.008101 0.102499 
u270 0.243763 -0.026373 0.085702 0.178150 0.039940 -0.042915 -0.200439 -0.060002 -0.308337 -0.128998 
u736 -0.052274 0.154540 0.273171 -0.045894 0.136547 -0.077850 -0.143001 -0.265598 0.123772 -0.075111 
l1173 -0.271265 0.037495 0.180122 -0.127880 -0.054126 -0.262299 -0.200774 -0.130628 -0.020550 -0.079098 
l4435 0.072003 -0.052249 0.350760 -0.508352 -0.225975 0.120541 0.027652 0.424895 0.053973 0.410519 
l6596 0.039430 0.118231 0.100137 -0.068869 -0.004422 0.002596 -0.229953 -0.270703 -0.199520 0.102370 
l3807 0.153571 0.030794 0.300478 0.017349 0.065835 -0.075930 -0.165433 -0.292033 -0.060108 -0.034143 
u829 0.064167 -0.002788 -0.155554 -0.098126 -0.319110 0.097545 0.064060 -0.031278 0.228959 0.031778 
u888 0.183074 0.001234 0.180029 -0.310735 -0.136079 0.074904 -0.045700 -0.125766 0.219879 0.012226 
l8940 0.006328 0.212500 0.241310 -0.021432 0.353737 -0.204502 -0.284250 -0.001230 -0.028457 -0.031058 
u968 -0.003277 0.083743 0.237139 -0.195454 0.116043 -0.306520 -0.255158 0.028364 -0.098802 -0.030035 
l5 -0.004691 0.145263 0.182439 -0.118731 0.311710 -0.193918 -0.213239 0.070812 -0.073152 -0.027659 
u894 0.098606 -0.013389 0.291688 0.010970 0.227747 0.125672 -0.143059 0.112771 -0.201599 0.082017 
u972 -0.217573 -0.015424 0.138731 -0.101479 -0.089466 -0.004658 -0.100197 -0.233051 -0.245943 -0.045948 
l338 0.005599 -0.125528 0.113141 0.024677 -0.327549 0.105732 0.051805 0.165163 0.414269 0.337281 
l4538 -0.066431 -0.195495 0.231413 -0.123903 0.053186 -0.163799 0.145029 0.016297 -0.251781 0.051293 
u176 -0.261288 -0.094654 -0.254261 0.006729 0.000317 0.230012 0.263085 0.105129 -0.242571 -0.092796 
u99 0.061150 0.033068 0.182058 0.082198 0.209007 -0.078747 -0.251755 -0.257151 0.059086 -0.353161 
u395 -0.145795 0.152900 0.230568 0.084321 -0.045682 -0.228166 -0.097255 -0.200898 0.009435 -0.007084 
u383 -0.008556 0.207001 0.099757 0.234048 0.012394 -0.193329 -0.169621 -0.147243 0.110182 0.116952 
u456 -0.085463 -0.286693 -0.128091 -0.090548 0.069757 0.013548 0.279776 0.133785 -0.317322 0.070495 
u140 0.001571 0.040601 0.170406 0.161547 0.306056 0.001894 -0.162686 -0.168471 0.103572 -0.271478 
u89 0.080035 -0.005590 0.115691 0.244381 0.210514 0.244468 -0.172372 -0.115298 0.174430 -0.176822 
u642 0.058881 0.185946 0.293351 -0.014573 0.121076 -0.082637 -0.298696 -0.187115 0.053115 -0.014344 
l1474 0.048069 0.065197 0.120647 -0.001230 0.219067 -0.158588 -0.254945 -0.087982 0.000476 0.020388 
l701 0.048081 -0.091328 -0.295099 -0.054242 0.016422 -0.362654 -0.236826 0.167719 -0.076407 0.291536 
l8073 -0.069817 0.250869 0.319554 -0.036988 0.107104 -0.076395 -0.284787 -0.108449 0.100039 -0.038081 
l7183 -0.239589 -0.212749 -0.331632 -0.039226 -0.014629 0.291233 0.327926 0.194587 -0.148229 0.020771 
u901 -0.040947 -0.096846 0.002420 -0.269061 -0.178483 0.141306 -0.128565 0.006189 0.063431 0.303682 
u862 0.096632 -0.029377 0.201131 0.005814 -0.145005 -0.286028 -0.175734 -0.176122 -0.063773 0.077974 
l8091 -0.037027 -0.111381 0.207380 0.134940 0.282708 0.199610 -0.132958 -0.177139 0.061298 -0.127180 
l5988 -0.205132 -0.138264 -0.114080 0.005132 0.093131 0.228514 0.205266 0.034734 -0.086440 -0.112076 
l5984 0.011597 0.200102 -0.071283 -0.198776 -0.011296 -0.100153 -0.101966 -0.067318 -0.230371 0.235863 
u46 0.025009 0.076932 0.199886 0.075247 0.288651 0.033539 -0.136620 -0.084662 0.150220 -0.043169 
u234 0.198970 0.102756 0.218085 -0.069274 0.082338 -0.019008 -0.220615 -0.102126 0.181978 -0.187674 
u372 -0.234345 -0.088276 -0.037162 -0.123907 0.005220 0.200322 0.275104 0.134682 -0.225771 -0.084799 
l8742 -0.126444 -0.218284 -0.252722 -0.136924 -0.069867 0.185059 0.381458 0.126907 -0.304186 0.024999 
u61 -0.158165 0.038565 0.141688 0.238273 -0.055433 -0.043986 -0.128097 0.139037 -0.139091 0.016121 
u594 -0.128645 0.000354 -0.194424 -0.060643 0.122606 0.200440 0.126346 0.002780 0.052279 -0.393707 
u227 -0.098101 0.134206 0.026072 0.220763 0.059406 0.020207 0.017839 0.006476 0.192395 -0.296310 
l7138 -0.016452 0.161892 0.255278 -0.095366 0.367130 -0.232306 -0.221255 0.045791 -0.035231 -0.050724 
u247 -0.138287 0.261778 0.283398 0.064173 -0.072366 -0.130331 -0.031171 -0.004136 0.009395 0.087937 
l8823 0.155859 -0.174448 -0.019963 -0.089682 -0.465747 0.146129 0.051449 0.014612 0.263858 0.210175 
u338 0.036196 -0.098379 0.077693 0.247715 0.246863 0.241979 -0.029602 -0.136318 0.174151 -0.154738 
u268 0.114129 0.130237 0.137712 0.170980 0.333526 -0.053030 -0.169174 0.010595 0.090863 -0.157303 
u932 0.098841 0.055298 0.243587 0.036258 0.231753 -0.063539 -0.291984 -0.136741 0.014140 -0.103827 
u394 0.087711 0.018663 -0.072177 -0.059430 0.263177 -0.129179 -0.130649 -0.156205 0.226919 -0.088020 
l2935 0.362390 -0.226515 -0.354730 -0.101870 0.116065 -0.391304 -0.206002 -0.000458 0.203010 -0.066269 
l2596 0.053561 0.123918 0.212994 0.093487 0.147673 -0.095244 -0.246990 -0.271837 0.123807 -0.257440 
u386 0.045118 -0.008039 0.238712 0.034540 0.230384 0.181076 -0.158655 0.015649 0.068601 -0.199407 
u88 0.069901 0.286434 0.144474 -0.130812 0.089704 -0.052664 -0.023396 -0.243672 -0.029706 -0.129137 
u202 -0.129895 0.113600 0.257483 0.014969 0.131984 -0.232124 -0.243666 -0.020182 0.046465 0.042212 
u624 -0.004288 0.167169 0.214831 0.000615 0.332675 -0.067904 0.088293 -0.001294 0.100939 -0.139481 
l3098 0.059497 0.005970 0.155992 0.192631 0.282739 0.029275 -0.225886 -0.193143 0.008796 -0.310134 
l2707 0.088674 0.076284 0.221294 -0.090910 0.336438 -0.024164 -0.195905 -0.078498 0.141067 -0.086931 
u375 -0.067375 0.114665 0.166653 -0.171446 0.405151 0.011711 -0.271030 0.035631 -0.029225 0.074725 
u764 0.145642 0.087825 0.001047 0.289712 0.251088 0.051337 -0.240167 -0.144994 0.046867 -0.171775 
u699 -0.206597 -0.212216 -0.279216 0.005243 0.012692 0.216298 0.394782 0.111716 -0.259842 -0.003779 
u489 -0.130078 0.171538 0.054526 -0.119749 0.134064 -0.280437 -0.211303 -0.090471 -0.048622 0.059663 
l3831 0.018048 -0.027577 0.331644 -0.130617 0.159894 0.017617 -0.129096 -0.167825 -0.085963 0.040776 
u74 0.089202 -0.079871 -0.017599 0.173431 0.237416 0.094308 -0.082276 -0.200073 0.187659 -0.288899 
l2711 -0.020759 0.106544 0.080698 -0.209555 0.021041 -0.173495 -0.163640 0.121660 -0.110800 0.216530 
l212 0.433692 -0.068836 -0.322676 0.060424 -0.221753 -0.010693 0.085820 0.040795 -0.162271 0.273336 
u391 -0.266731 0.124735 0.107743 -0.032089 -0.030897 -0.047453 -0.097450 -0.139640 0.025817 0.148047 
l9942 0.130940 -0.091441 -0.164600 -0.107008 -0.389325 0.112833 -0.118793 -0.093064 0.257735 0.062798 
u397 0.173962 0.051833 0.079169 -0.060632 -0.217309 0.211524 -0.166500 0.162590 0.307918 0.173694 
l7653 -0.098326 0.042191 -0.103493 0.158217 0.092455 -0.009091 -0.158424 -0.073610 0.263112 0.027627 
l1674 0.323979 0.350246 0.209847 -0.018377 -0.232554 -0.006070 0.180284 0.108529 0.029253 -0.079368 
l3610 -0.232009 0.009536 0.069666 -0.296751 -0.120427 -0.159644 -0.064173 -0.004764 0.135840 -0.054996 
u167 0.110235 0.070274 -0.204249 -0.220995 -0.114629 -0.161140 -0.071582 -0.096876 -0.086965 0.207334 
u124 -0.194681 0.062427 0.082866 -0.242408 0.172179 -0.071189 -0.029370 -0.179093 -0.020539 0.075148 
l8515 -0.036240 -0.036497 0.285636 -0.161387 0.187217 -0.190103 -0.215690 -0.104859 -0.034988 -0.024103 
l3038 0.186222 -0.064073 0.202062 0.146519 -0.279227 0.124312 0.067789 0.168792 0.026871 0.086586 
l3076 -0.024813 0.206176 0.017100 -0.216730 0.181086 0.042539 -0.031288 -0.106704 -0.144664 0.185739 
u222 0.043855 0.197656 -0.089362 0.086074 -0.072344 0.066925 0.043039 -0.084317 0.092004 0.169670 
l844 0.168761 -0.082986 0.197808 0.092097 0.099430 0.177569 -0.003635 -0.081866 0.253992 -0.143837 
u929 -0.031602 0.106039 0.218592 0.036593 0.015115 -0.021332 -0.204678 -0.068229 0.034277 -0.327786 
u1043 0.100437 0.201212 -0.162084 0.111166 0.188217 -0.132959 -0.075388 -0.090759 0.126857 -0.239367 
u240 -0.084406 -0.261083 -0.123327 -0.124575 -0.155072 -0.100747 0.044031 0.089564 -0.215872 0.139818 
u892 0.010087 0.109027 -0.006192 0.146517 -0.079146 0.087923 -0.081932 -0.139954 0.229998 0.029445 
u469 0.130957 0.239593 0.278057 0.150040 0.225539 0.098939 -0.088822 -0.141025 0.082628 -0.140580 
u563 -0.050954 0.089643 0.074705 -0.220396 -0.006361 -0.046597 -0.144527 -0.116324 0.284678 0.240006 
u941 0.086258 0.054227 0.104707 0.247571 0.234814 0.052092 -0.071232 -0.200018 0.134783 -0.282657 
u92 -0.009808 -0.066394 0.047292 0.130673 -0.064113 0.056989 -0.030740 -0.067866 0.279026 -0.159464 
u976 0.139111 -0.056325 0.076351 0.041816 -0.567973 0.184000 0.122608 0.184913 0.035703 0.058375 
u69 -0.280589 0.031336 -0.022927 0.186784 0.153941 0.052765 -0.155951 -0.045112 0.114286 -0.063528 
l1177 0.096321 0.023614 0.191964 0.131072 0.396188 -0.201449 -0.041135 -0.044132 -0.074868 -0.132511 
u656 0.039036 -0.056761 0.274483 0.168559 0.072461 0.185183 0.086402 -0.178173 0.092674 -0.091892 
u822 -0.025789 0.118789 0.165414 0.165766 0.073465 0.043350 -0.242930 0.104414 -0.089583 0.159353 
u260 0.157697 -0.052596 0.328293 0.114502 0.180084 0.021738 -0.077323 -0.184991 0.169121 -0.123255 
l6353 0.072035 -0.052238 0.350843 -0.508407 -0.226004 0.120556 0.027621 0.424921 0.053996 0.410597 
u916 0.120726 0.109338 0.129611 -0.079643 0.299430 0.013454 -0.006475 -0.091708 0.033328 0.057078 
l9612 0.121721 0.023787 0.185670 0.115238 0.416041 -0.213074 -0.053783 -0.031555 0.023016 -0.181294 
u1046 -0.041979 0.070701 0.064844 0.265999 0.185961 0.087650 0.023131 -0.043473 0.183349 -0.214571 
l650 0.070477 -0.060870 -0.239369 -0.248754 -0.162405 -0.048855 0.046254 0.117932 -0.000742 0.086652 
l4839 -0.064306 -0.148376 -0.218912 -0.156629 -0.028274 0.240959 0.446394 0.163144 -0.336592 0.004270 
l1980 0.028155 0.029638 0.389877 0.013140 0.021722 -0.133304 -0.077809 -0.213451 -0.032891 0.114820 
u457 0.009914 0.038838 0.051232 0.171303 0.268940 0.099641 -0.252788 -0.195177 0.137653 -0.256762 
l1856 0.025237 0.179694 -0.081716 0.241892 -0.188491 -0.164518 0.163098 -0.050210 0.205227 0.296101 
l6414 0.002809 -0.235920 0.187739 -0.004488 -0.163517 0.171839 0.195921 0.053388 0.304720 0.375942 
l3207 0.251960 -0.423344 -0.156884 0.039761 -0.206960 0.121159 0.013794 -0.085286 0.023264 0.019437 
l6754 -0.138889 0.110880 0.285050 -0.124282 0.148749 -0.207087 -0.064334 -0.068040 -0.048315 -0.005650 
l8351 -0.126513 -0.427263 -0.199971 -0.117584 -0.101755 0.185037 0.340201 0.211332 -0.245639 0.146909 
l9614 0.100658 -0.105498 0.107138 0.283710 -0.235696 0.062386 0.135049 0.033502 0.363376 0.351290 
l7801 -0.224971 -0.130678 -0.315923 -0.129582 -0.027189 0.253394 0.204534 0.213542 -0.139572 -0.375825 
l8985 -0.010516 0.157543 0.221930 0.027532 0.277640 -0.202086 -0.291086 -0.128219 -0.021885 -0.040732 
u610 -0.118469 -0.192329 0.343411 -0.013277 -0.079183 -0.107957 -0.099213 -0.183415 -0.160839 -0.013835 
u1074 0.039512 0.299746 -0.027695 -0.156665 -0.103884 -0.099575 -0.202842 0.189961 -0.145307 -0.014024 
l2270 -0.029062 -0.033700 0.256607 0.030176 0.229670 -0.213107 -0.308676 -0.027091 -0.057647 -0.053359 
l3191 0.207416 -0.415986 -0.152310 0.027328 -0.189120 0.192533 0.026034 -0.118723 -0.053999 0.083195 
l1338 -0.005680 0.069723 0.189403 0.007621 0.191597 -0.037353 -0.373142 -0.010648 -0.028585 -0.160689 
u473 0.025973 -0.000679 0.213118 0.099717 -0.008955 -0.141197 -0.184014 -0.188153 -0.137293 -0.020731 
l1225 -0.178905 0.397990 -0.114476 0.266366 -0.161127 -0.069375 0.207191 0.158152 -0.180946 -0.123376 
l7367 0.262949 -0.280779 -0.192882 -0.081092 -0.377869 0.122198 0.005077 -0.045328 0.116604 0.107574 
l8010 0.071903 -0.052275 0.350289 -0.507777 -0.225659 0.120364 0.027642 0.424341 0.053895 0.410082 
l9850 0.104692 -0.029702 -0.103893 -0.189786 -0.155545 0.129637 0.234412 0.179873 0.054852 0.096434 
u708 0.174953 -0.199657 -0.136041 -0.085617 -0.029633 -0.244029 -0.173925 0.078392 0.034283 0.225125 
l3660 -0.039999 0.139362 0.256652 -0.001794 0.195518 -0.145820 -0.187805 -0.209279 0.231243 -0.015552 
l9266 -0.339988 0.008623 -0.065269 -0.253890 -0.096035 0.096377 0.304589 0.197270 -0.033765 -0.275043 
u580 0.031804 -0.142555 -0.016319 0.221312 0.261535 0.092609 -0.123017 -0.260787 0.055899 -0.269135 
u472 -0.088312 -0.320151 0.027809 -0.193868 -0.003526 -0.019303 -0.414120 -0.044295 -0.163185 -0.092076 
u804 0.160089 0.206520 0.161462 0.051530 0.258323 -0.098994 -0.089670 -0.050598 0.117160 -0.223395 
u79 0.124848 0.039304 0.177393 0.152703 0.149210 -0.220958 -0.333198 -0.006599 -0.020030 0.058986 
u235 -0.056394 0.028325 0.162554 0.307009 0.172520 0.005149 -0.175571 -0.183998 -0.010185 -0.083382 
u295 0.190673 0.142978 0.299774 0.123924 0.214826 -0.035567 0.016272 -0.179444 -0.031542 -0.158405 
u196 -0.232279 -0.167793 -0.092717 -0.153742 -0.001452 0.008225 0.194144 0.022841 -0.272361 -0.092696 
l4803 -0.108895 0.013591 0.100992 0.180943 0.349186 0.095327 -0.196825 -0.137638 0.143434 -0.273642 
u960 0.058172 -0.077099 0.129455 0.044837 0.325370 -0.021785 -0.247220 -0.195017 0.131610 -0.189915 
u751 -0.359665 -0.020876 -0.055593 -0.269540 -0.122347 0.008775 0.331922 0.211021 0.046852 -0.248612 
u582 0.026626 -0.178046 0.081643 0.216415 0.378178 0.057467 -0.185375 -0.131219 0.161942 -0.208170 
l5981 0.117438 0.120635 0.153939 0.155692 0.207327 -0.099866 -0.201161 -0.261258 0.154748 -0.125175 
l7599 0.208279 0.068834 0.107547 0.124719 0.157499 -0.115122 -0.323789 -0.030810 -0.101366 0.086733 
u986 -0.072857 0.036296 0.226310 -0.136910 0.166736 -0.220150 -0.343279 0.078380 -0.035126 -0.150134 
u785 -0.119057 0.138220 -0.020339 0.266241 0.052401 -0.214113 -0.263674 0.091820 -0.075143 0.092293 
l6653 -0.003952 0.076733 0.213326 0.014145 0.148596 -0.058741 -0.329397 0.058863 -0.170062 -0.167528 
u936 0.236013 0.295199 0.216078 0.166044 -0.207962 -0.043317 0.206382 0.064954 0.009361 0.081314 
u1066 0.027472 0.182451 0.226239 0.124324 0.141673 -0.087974 -0.214692 -0.207607 0.152585 -0.043274 
l5304 -0.178251 -0.221758 -0.188034 -0.225260 0.055590 0.186824 0.321704 0.225610 -0.280473 -0.116243 
l5416 0.224975 0.153849 -0.103087 0.230760 -0.155424 -0.059822 0.085142 -0.125836 -0.556724 -0.345733 
l8417 0.143238 -0.021781 0.223622 -0.156307 0.205861 0.024541 0.167883 -0.081438 0.223915 0.045493 
l4734 0.261579 -0.238752 -0.159278 0.077873 -0.161736 0.226087 0.207524 0.130523 -0.228903 0.212744 
l7062 0.100836 0.041008 -0.112245 0.003832 -0.456350 0.138683 0.075404 0.186446 0.113410 0.112959 
l3498 0.059294 0.275104 0.156536 -0.018681 0.194795 0.114706 0.023522 -0.163740 0.145799 -0.027844 
u808 -0.242683 0.047764 0.152332 -0.215669 -0.052745 0.018098 0.034338 0.178056 -0.111088 -0.158136 
l4109 0.072076 -0.052165 0.350918 -0.508504 -0.226034 0.120551 0.027559 0.424975 0.054023 0.410682 
l5798 0.071987 -0.052330 0.350531 -0.508132 -0.225904 0.120527 0.027793 0.424730 0.053840 0.410341 
u366 0.064062 0.017377 0.387784 0.011728 0.062418 -0.219827 -0.158352 -0.124212 0.030192 -0.104069 
l6002 0.157926 -0.162033 -0.037165 -0.034981 -0.366859 0.103871 0.012075 -0.098526 0.248721 0.131987 
u355 -0.039936 0.335891 -0.098073 -0.077612 0.124156 -0.010656 0.119679 0.045808 -0.035833 0.044190 
u984 -0.082448 -0.072045 0.079573 0.243734 0.289780 0.056625 -0.136783 -0.193944 0.178246 -0.312229 
u364 -0.098031 -0.110701 0.264500 0.004011 -0.023339 -0.193767 -0.156861 -0.262684 0.001220 -0.100557 
l3161 0.193785 -0.156980 -0.348968 -0.194965 -0.195213 -0.324420 -0.008754 -0.081275 -0.025519 0.022624 
u264 -0.131239 -0.467351 -0.273949 -0.081079 -0.150790 0.220980 0.280580 0.102117 -0.122332 0.112524 
u762 0.176237 -0.114317 -0.044523 0.208295 0.147554 0.020572 -0.293224 -0.089052 -0.050885 -0.072573 
u666 -0.339047 0.017609 -0.058963 -0.205100 -0.177645 0.046865 0.238775 0.168148 0.003003 -0.205611 
u1024 -0.199498 -0.045903 -0.230167 -0.062195 -0.163320 0.178580 0.308202 0.172957 0.016618 0.062592 
u396 -0.186542 0.114561 -0.080704 0.106694 0.027456 -0.342634 -0.283651 0.072491 -0.065046 0.228455 
l1371 0.143248 -0.079794 0.072322 0.006612 -0.436613 0.176112 0.120517 0.124510 0.186450 0.063099 
l8210 -0.365856 -0.139832 -0.299232 0.059821 0.172636 0.342471 0.292343 -0.130210 0.063020 -0.093684 
l7671 0.061663 -0.322885 -0.103398 -0.133093 -0.056190 0.174189 0.339307 0.147224 -0.339721 0.191381 
l1175 -0.043854 -0.011680 0.030109 -0.403462 -0.037261 -0.063245 -0.052894 -0.034723 0.007215 0.069406 
l4742 0.082582 0.184228 0.238074 -0.041350 0.221752 -0.040811 -0.182644 -0.197620 0.211849 0.043642 
u59 -0.040785 -0.422864 -0.253964 -0.116262 -0.200867 0.140551 0.364922 0.136910 -0.167253 0.020838 
u1014 -0.062700 -0.048514 0.195036 0.188471 0.123220 -0.012556 -0.328727 -0.136252 -0.111114 -0.003026 
u314 0.071459 -0.042019 0.155114 0.204246 0.182630 0.062257 -0.120678 -0.289129 -0.004407 -0.117686 
u949 0.092984 -0.010027 0.065008 -0.290894 -0.036250 -0.101519 -0.218791 -0.140982 0.101570 -0.072236 
l4845 0.028135 -0.268230 0.207294 -0.252996 0.063378 -0.129888 0.079373 -0.107866 0.005772 0.012158 
l1989 0.021043 -0.253410 0.215922 -0.003170 -0.159558 0.190756 0.191474 0.053477 0.322642 0.401408 
l808 0.166482 0.280332 0.008943 0.244645 0.277055 0.049081 -0.043010 0.055873 0.241851 -0.042164 
u1062 0.037390 0.194010 0.152466 0.141820 0.400065 -0.100010 -0.160476 0.081205 0.030849 -0.110940 
l7514 -0.107195 0.214904 -0.305254 -0.168143 -0.157525 0.338684 -0.018758 0.128274 0.021321 -0.088972 
l2258 -0.037410 -0.475307 -0.248308 -0.105736 -0.184712 0.040127 0.367598 0.114561 -0.103210 0.133695 
u885 0.195337 0.021470 -0.120500 0.193933 -0.135319 0.186749 0.064137 0.143265 0.039025 0.258179 
l1688 -0.305628 0.166340 -0.268190 -0.211793 -0.260252 0.172129 0.342536 0.065266 0.113137 0.017239 
u897 0.054856 0.002151 0.013385 0.211987 0.296116 -0.092290 -0.274600 -0.027171 0.175624 -0.132662 
l2008 0.161059 -0.070792 0.211472 0.269076 -0.118458 0.109823 0.195815 0.090320 0.195457 0.100299 
u833 0.121138 0.013248 -0.203143 -0.123208 -0.070806 -0.406964 -0.198412 0.042640 0.042730 -0.001307 
u138 0.027323 0.018321 0.272715 0.041501 0.160743 -0.096689 -0.225990 -0.273815 -0.020991 -0.182544 
l8284 0.117473 0.219567 0.115782 0.177072 0.318272 -0.001691 -0.194566 -0.081104 0.126238 -0.038459 
u332 0.201608 -0.018449 0.146855 -0.016266 0.004860 0.132832 -0.153746 0.129332 -0.330062 -0.006295 
u682 -0.140777 0.082908 0.101778 -0.211997 0.099410 0.038915 -0.067547 -0.142573 0.051150 0.175601 
u1069 -0.021775 -0.022812 0.072392 0.156633 0.268901 0.109937 -0.205970 -0.077592 -0.022500 -0.101994 
u735 0.200949 -0.317176 0.042478 -0.150776 -0.049216 -0.192152 0.231683 -0.202929 -0.005454 -0.087067 
l7086 0.229503 0.156348 -0.105689 0.234240 -0.158021 -0.060635 0.086641 -0.127918 -0.567206 -0.349186 
l7420 -0.338530 0.159753 -0.352052 -0.217292 -0.158112 0.143273 0.336139 0.103092 0.038060 0.035121 
l2768 -0.102519 -0.106019 -0.268959 -0.201495 -0.224221 -0.323822 0.035234 0.136688 -0.084282 -0.234409 
u786 -0.022008 0.076500 0.031580 0.348457 0.227358 0.017514 -0.022999 -0.051516 0.182817 -0.123391 
l1577 0.227311 0.152616 -0.102683 0.229683 -0.154909 -0.059162 0.082833 -0.124705 -0.558352 -0.341907 
l7497 0.072064 -0.052224 0.350920 -0.508447 -0.226015 0.120540 0.027553 0.424953 0.054050 0.410641 
u150 0.108994 0.160623 0.106572 0.090535 0.351164 0.256890 0.043485 -0.097819 0.119709 -0.119509 
l8466 0.003122 0.179221 0.246967 -0.045984 0.331883 -0.216836 -0.127699 -0.031881 -0.077516 0.011060 
l6900 -0.234365 0.212944 -0.110805 -0.220893 -0.136550 0.107605 0.271871 -0.002187 0.117550 -0.066262 
u19 -0.209764 0.187801 0.194423 0.163654 0.020601 -0.093150 -0.191846 -0.089051 -0.090230 -0.040014 
u1041 -0.165433 0.126681 0.163413 -0.177763 -0.013111 -0.178853 -0.161645 -0.139794 -0.114104 0.137671 
u878 0.081994 0.359185 0.062187 0.049769 0.152195 0.033109 0.081579 -0.009197 0.201242 -0.110389 
u937 -0.104663 0.016936 0.069373 0.145739 0.260849 0.205728 -0.023201 -0.179640 0.127555 -0.262967 
l9280 0.238760 0.172770 -0.370743 0.069096 -0.277931 -0.114748 -0.233670 -0.071217 0.055606 -0.054698 
u536 0.031332 0.263871 0.016504 0.010931 0.002204 -0.094785 -0.326220 0.085605 0.056646 0.012590 
u420 -0.024206 -0.056974 0.074784 0.317078 0.182488 0.186030 -0.144219 -0.122727 0.186928 -0.323014 
l5549 0.312622 -0.089799 -0.457767 -0.206521 -0.134228 -0.271929 -0.000024 -0.148125 -0.041299 0.063061 
l1151 0.260813 0.186723 0.188296 -0.047428 0.107868 -0.003795 0.003680 -0.239469 0.027942 0.004475 
l2608 -0.016632 0.129758 0.186218 0.255869 -0.108020 0.122666 -0.000507 0.136975 0.042509 0.043644 
u692 0.187759 0.162292 0.193653 0.149812 -0.050161 0.078829 -0.096594 -0.148035 0.221101 0.037761 
u571 0.229905 0.090984 0.183745 0.213311 0.203767 -0.127868 -0.086554 -0.155155 0.172274 -0.180300 
u405 -0.027756 0.042782 0.122798 0.026115 0.287800 -0.150786 -0.206014 0.005473 -0.008301 0.073352 
l8442 0.003580 0.315303 -0.028024 -0.172632 -0.068994 -0.189638 -0.271475 0.142359 -0.008378 -0.031848 
l167 -0.011898 0.054052 0.222363 -0.288231 0.210817 -0.167366 -0.262778 0.026844 0.154882 0.040877 
l882 -0.060360 0.212132 0.257397 -0.093871 -0.022525 -0.039952 -0.007671 0.050584 -0.273354 0.080823 
u962 -0.047772 0.061310 0.159105 0.308304 0.144046 0.039367 -0.125322 -0.249831 0.161029 -0.113950 
l8632 0.026980 -0.003217 -0.043383 0.215142 0.091978 0.242801 -0.185902 -0.118392 0.232111 -0.046902 
u427 0.194868 0.115059 -0.087686 0.039608 0.016183 -0.116086 -0.087818 0.175409 -0.057029 0.043735 
u0 0.108750 0.109887 0.195260 0.165979 0.249957 0.012622 -0.170453 -0.136481 -0.001276 -0.361283 
u876 0.274620 -0.328936 -0.136960 0.155755 -0.081131 0.265980 0.172872 0.078193 -0.290711 0.082368 
u334 -0.063625 0.223152 0.213629 0.022274 0.343074 -0.109374 -0.174961 -0.130844 -0.035009 -0.061205 
u635 0.011706 0.081770 0.230778 0.172010 0.217040 -0.141402 -0.101707 -0.189294 0.156798 -0.111090 
l7975 -0.018993 0.028648 0.244892 0.236097 -0.067687 -0.039900 -0.013276 0.196502 -0.299057 0.227419 
u722 -0.005967 0.143099 -0.136215 0.257168 0.138605 0.074906 0.165155 0.017606 0.017800 -0.046878 
u381 -0.109548 -0.253209 0.093189 0.241463 0.060174 0.125355 -0.119188 -0.201307 0.127729 -0.043165 
u653 0.182636 -0.100341 -0.049743 0.330440 -0.091690 0.110976 0.144279 0.204337 0.041597 0.269786 
u385 0.159132 0.007978 -0.072157 0.094971 -0.096971 0.041391 -0.176286 0.249438 -0.065281 -0.148053 
u478 0.228883 0.031757 0.023915 -0.047623 -0.277577 0.015175 0.243611 0.194280 -0.014571 0.259085 
l8371 0.191304 -0.138743 -0.172593 0.001580 -0.148673 -0.083866 0.096941 -0.082957 0.035334 0.309286 
u651 0.107366 -0.111238 0.113666 0.174562 -0.052519 -0.040303 -0.033421 -0.136414 -0.019032 -0.016369 
l1320 0.154868 0.006090 0.013820 -0.195595 -0.033214 0.133913 0.021466 -0.265975 -0.044706 0.266177 
l1093 0.114277 -0.110388 -0.158403 -0.023679 -0.342890 0.202421 0.105061 0.225743 -0.005357 0.388141 
u857 -0.001045 0.251464 -0.065242 0.052194 -0.193760 0.004823 -0.072637 -0.187471 0.284320 -0.091746 
u449 -0.093092 0.053398 0.205276 -0.199305 0.248596 0.042312 0.079984 -0.024849 -0.187764 -0.146328 
u188 0.196546 0.117860 0.094096 0.206661 -0.075409 -0.178643 0.145553 -0.091315 0.223568 -0.236823 
l9301 0.034623 -0.052714 0.153077 0.086087 0.282675 0.019595 -0.071307 -0.256713 0.028967 -0.200814 
l1580 -0.010821 0.072396 0.228615 -0.034208 0.159543 -0.026345 -0.052969 -0.325901 -0.169096 0.015300 
u805 0.024379 0.120792 0.112608 0.236881 0.261571 0.046370 -0.253470 -0.146805 0.088083 -0.063158 
u112 -0.078462 -0.009843 0.082528 -0.265712 0.025242 -0.196413 -0.016914 0.022170 -0.247050 0.197129 
l9544 0.072056 -0.052207 0.351047 -0.508638 -0.226082 0.120581 0.027569 0.425101 0.054044 0.410837 
u845 0.019399 -0.081330 0.153343 -0.188596 0.291507 0.136646 0.019705 0.082936 -0.042330 -0.117398 
l5260 0.055462 -0.018520 0.235576 0.082789 0.129520 0.205208 0.060229 0.176447 -0.091964 -0.201893 
l2040 -0.034097 -0.104200 0.107033 0.251757 0.265376 0.204666 -0.142167 -0.143211 0.183219 -0.291490 
l776 0.106398 -0.102647 0.236600 0.127947 0.014206 -0.186005 -0.269953 -0.118575 -0.088424 -0.168966 
l3721 0.157807 0.163383 0.104930 0.031805 0.081704 0.253104 0.082927 -0.002430 0.274079 -0.063587 
l9894 0.050848 -0.413516 -0.282313 -0.033014 -0.213373 0.089061 0.332361 0.116869 -0.183606 -0.006896 
u206 -0.145670 -0.458080 -0.152028 -0.137552 -0.101743 0.163071 0.331620 0.237471 -0.169993 0.169706 
u113 -0.219911 -0.176092 -0.065698 0.025077 0.074788 0.116910 0.172046 -0.008197 -0.264761 -0.144635 
l9028 0.374686 -0.241642 -0.390895 -0.121763 0.113425 -0.420078 -0.202466 0.006441 0.221389 -0.066769 
u942 -0.035723 0.010479 0.115846 -0.070992 -0.072206 -0.349476 0.049735 -0.088015 0.021339 -0.039392 
l9139 0.033250 -0.117754 0.221230 -0.200851 0.199255 -0.011329 -0.091932 0.042219 -0.193974 0.261619 
l8616 -0.246272 -0.020949 0.175930 -0.190682 -0.161134 -0.187417 -0.157521 -0.070411 0.051521 -0.125962 
u702 -0.072118 0.185907 0.026326 0.153730 -0.167217 -0.037190 -0.038959 -0.048968 0.299128 0.189185 
u578 0.130739 -0.141856 0.069823 -0.075787 -0.142306 -0.044534 -0.095609 -0.094640 0.208694 0.207980 
l1787 0.327786 0.055491 -0.176174 0.092985 0.001572 0.310083 0.380864 0.007613 -0.465773 0.056821 
u997 -0.286375 -0.133801 0.129676 0.057554 0.134961 -0.151604 -0.244964 -0.097615 -0.143846 0.154662 
u789 0.022438 0.008941 0.152265 0.049831 0.203150 0.164621 -0.237141 -0.249581 0.046043 -0.069045 
l5165 -0.073003 0.019671 0.137660 -0.138080 0.183243 0.096542 -0.175709 -0.124246 0.313580 0.036968 
u851 0.203337 0.071949 0.154570 -0.077290 0.115006 -0.095594 0.030072 0.014597 0.121405 -0.244376 
l587 0.274248 -0.169534 -0.012613 -0.012578 -0.480253 0.256059 0.188717 0.045574 0.142092 0.175630 
l4916 0.162285 -0.054867 -0.071233 -0.144297 -0.217028 0.096551 0.023865 -0.093848 0.170668 0.078876 
u253 -0.260188 -0.253343 0.150017 -0.172292 -0.165422 -0.266942 -0.108975 -0.201271 0.013281 -0.020395 
l9904 0.029193 -0.306200 -0.154698 -0.008588 0.067409 0.184025 0.415339 0.165788 -0.325154 0.080617 
u787 0.031241 0.094227 0.132850 0.332665 0.006026 -0.101380 -0.012767 0.172573 -0.095230 0.321919 
u1033 0.052071 0.343499 0.087009 -0.080286 0.182419 -0.175701 -0.049143 -0.021667 0.069844 -0.070303 
u1058 -0.221880 -0.242664 -0.080727 -0.379841 -0.059770 0.067173 0.007316 0.126630 -0.109775 0.039515 
u15 0.221472 -0.092583 0.086320 0.036713 0.183655 -0.027403 -0.276108 -0.174670 0.078049 -0.156914 
l3856 0.007347 0.000584 0.076642 0.177212 0.262971 0.055451 -0.186112 -0.265409 0.018560 -0.170407 
l6367 0.092062 0.268383 -0.039702 -0.065576 0.183616 -0.039672 -0.184874 0.064209 0.000225 0.139403 
l915 -0.104146 0.256896 -0.256539 -0.274852 -0.272374 -0.115798 -0.004938 0.053463 0.190589 0.020828 
u476 0.085395 0.065814 0.121509 0.300918 0.320639 0.044180 -0.052975 -0.181876 -0.012646 -0.205627 
u201 -0.098486 0.204197 0.090852 -0.259495 -0.035971 -0.281151 -0.172344 -0.018022 -0.005401 -0.006153 
u604 -0.164351 0.010358 0.106456 0.009044 0.097436 -0.098431 -0.122533 -0.170610 0.210838 0.041333 
l2800 0.109023 0.148353 0.000518 -0.167970 -0.143337 -0.358217 0.095618 0.194006 -0.130136 0.160679 
l6436 -0.039515 -0.051987 0.094394 -0.307799 -0.164730 0.097319 -0.285111 -0.024295 -0.005873 0.304176 
u460 -0.077220 0.204213 0.097639 -0.088428 0.090471 -0.118734 -0.180277 0.055789 0.094878 0.082071 
l1987 0.012263 0.113396 0.200244 0.092477 0.365312 -0.019946 -0.254775 -0.011619 -0.003384 -0.135724 
l4769 -0.355742 -0.011069 -0.085733 -0.252526 -0.137925 0.067772 0.364486 0.242619 -0.007443 -0.270231 
l7836 -0.161557 -0.004641 -0.065388 -0.146906 -0.112971 -0.062835 -0.156475 0.147958 -0.098011 0.366868 
l2952 -0.125772 0.151916 0.256296 0.011435 0.204130 -0.093300 -0.285816 -0.161111 -0.024306 0.023879 
l5582 0.123873 0.028441 0.081284 0.324742 0.057292 -0.053454 -0.061921 0.005697 0.244387 0.217780 
l472 0.197812 0.151415 0.178840 0.086652 0.219288 -0.052172 -0.167576 -0.239964 0.175642 -0.139654 
u37 -0.344451 0.190762 0.038178 0.165527 -0.236572 -0.167558 -0.179508 -0.007570 0.163624 -0.068965 
l1821 -0.287820 -0.260193 -0.122431 -0.096258 -0.156879 0.081895 0.261174 0.252209 -0.125222 0.044552 
l5509 0.118731 -0.180975 0.068087 0.181422 -0.166058 0.148179 0.142122 0.108622 0.203853 0.268314 
l1692 0.078912 0.157784 0.105384 0.127028 0.122258 0.034461 -0.051639 -0.147183 0.267102 -0.204288 
u28 -0.171239 -0.162923 -0.238105 0.018105 -0.083898 0.304882 0.337044 0.134360 -0.080029 -0.084178 
l5996 0.124847 -0.162616 -0.177875 0.069437 -0.169831 0.121874 0.020311 -0.130797 0.310978 0.055895 
l5614 -0.111510 0.096134 0.255773 0.002663 0.319655 -0.076187 -0.166170 -0.105092 -0.004250 -0.143293 
u550 0.020553 0.252284 0.099515 -0.156068 0.156105 0.019880 -0.085590 -0.149274 -0.063864 0.302868 
u336 -0.034068 0.037018 0.229652 -0.080745 0.149267 -0.070603 -0.066325 -0.011295 0.088151 0.082010 
l2976 0.229686 0.156307 -0.106760 0.234539 -0.159891 -0.060306 0.087659 -0.127426 -0.568363 -0.350866 
u211 -0.157181 0.124965 0.164699 0.066905 -0.018390 0.054559 -0.150185 -0.282915 -0.010490 -0.111803 
l1386 0.216838 -0.181103 -0.200479 -0.122495 -0.143019 -0.261471 -0.193127 0.074279 0.082512 0.193402 
l5754 -0.040474 0.146709 0.241783 -0.115053 0.398495 -0.093357 -0.249484 0.032747 -0.017365 -0.035799 
u983 -0.116657 0.016958 -0.109665 -0.141220 -0.124985 0.244652 0.435041 0.052278 -0.297970 -0.088207 
u281 -0.105498 -0.033619 0.038891 -0.138669 -0.193148 -0.279695 -0.018466 0.197765 -0.039339 -0.015222 
l3757 0.071956 -0.052172 0.350578 -0.508028 -0.225810 0.120405 0.027587 0.424592 0.053877 0.410352 
l7300 -0.133823 0.042410 -0.107371 0.094473 0.156154 -0.294105 -0.054763 -0.134175 -0.197830 0.106688 
u1040 0.256269 -0.084854 -0.229197 -0.035939 -0.296183 -0.023009 -0.116598 -0.037855 0.216813 0.174377 
l7111 -0.023164 -0.051386 0.243898 -0.056993 0.280989 -0.057494 -0.277695 -0.172133 0.127682 -0.133539 
l4299 0.062013 0.112105 0.219412 0.217370 0.319678 0.020065 -0.279727 -0.167765 0.123748 -0.189252 
l2817 0.106443 -0.335280 -0.332217 -0.017152 -0.393753 0.026209 0.071868 0.068055 -0.051749 -0.070778 
l52 0.341129 -0.038674 -0.102253 0.382091 -0.075401 0.026203 0.111783 0.159784 0.036252 0.123547 
l814 -0.079580 -0.288826 -0.351657 0.014505 -0.062310 0.192492 0.449313 0.086693 -0.206166 -0.028199 
u659 -0.193729 -0.134332 -0.168037 -0.129784 -0.035632 0.211830 0.311020 0.047275 -0.335214 0.090290 
u573 0.025391 0.110025 0.249555 -0.011437 0.222270 0.155891 -0.234788 -0.098813 0.129081 -0.190638 
l3000 0.179469 0.062673 0.304580 0.086422 -0.087042 -0.333570 0.043752 0.068447 -0.026061 0.152867 
u741 -0.184640 -0.012106 0.139740 0.039138 0.049234 -0.034465 -0.277175 -0.046650 -0.052586 -0.140212 
u552 -0.199820 0.041931 0.086837 -0.044785 -0.044469 0.080343 -0.145908 -0.085235 -0.007536 -0.298146 
u182 -0.059468 -0.026753 0.159756 0.086328 -0.083050 0.116970 0.056583 0.101511 0.463542 0.298625 
u485 -0.152165 -0.145616 -0.242630 0.104349 -0.046300 0.250179 0.321126 0.077087 -0.255908 -0.039815 
u512 0.109113 -0.177077 0.144714 0.228998 0.047463 0.098669 -0.286622 0.001349 0.023743 -0.195814 
u11 -0.119507 0.367625 0.159722 0.122349 0.161642 -0.039951 -0.091668 -0.093099 0.110135 -0.022960 
u339 0.090163 0.245843 0.008490 -0.152672 0.119113 0.021546 -0.121471 -0.248798 -0.166597 0.218416 
u734 0.056330 -0.140879 0.102536 0.237332 0.125650 0.186408 -0.108612 -0.133068 0.239434 -0.291885 
l2068 -0.219006 0.047741 -0.154411 0.094951 0.227482 0.032304 0.015037 -0.025625 0.058608 -0.111621 
l989 0.091010 0.066682 0.213066 0.180510 0.279073 -0.117843 -0.206900 -0.196658 0.082707 -0.243601 
l8931 0.215227 0.122082 0.108087 0.040236 0.313577 0.028314 -0.146380 -0.085321 0.238251 -0.111975 
l8929 0.200840 -0.076450 0.049903 0.118719 -0.232220 0.230096 -0.108804 -0.039574 0.352097 0.054657 
l5234 0.029027 0.038597 0.143109 -0.185515 0.213280 0.024633 -0.177430 0.062272 -0.245572 0.294114 
u166 0.143993 -0.066413 0.008671 0.219857 0.062751 -0.019185 -0.329160 -0.061565 -0.198317 0.062463 
u23 0.011343 0.273690 0.127317 0.143693 0.205860 0.096852 0.001502 -0.159256 0.085882 -0.066631 
u687 0.208545 -0.002391 0.169427 0.103374 0.222685 -0.046586 -0.033233 0.046724 0.062527 -0.239571 
l1913 0.096735 -0.015465 0.176111 0.189861 0.293700 -0.034174 -0.274873 -0.215055 0.026954 -0.205077 
l6103 -0.042503 -0.070726 0.008635 -0.005318 -0.045836 -0.211819 -0.267106 -0.073672 0.020153 -0.112383 
u781 0.035215 0.196360 0.132495 0.287062 0.092556 -0.164249 -0.120499 -0.211727 -0.022768 0.147321 
u802 0.134427 0.058082 0.190233 -0.056600 0.182111 0.069722 -0.228486 -0.213222 0.191079 -0.167606 
u823 0.134986 0.111523 0.011913 0.120393 -0.124690 0.051561 0.072937 0.109770 0.270084 0.136172 
u830 0.090263 0.020935 0.100485 0.114085 0.264958 0.018615 -0.057871 -0.309938 0.143942 -0.193819 
u349 -0.205426 -0.218389 -0.178662 -0.028062 0.040728 0.094074 0.261618 0.123133 -0.226958 -0.017142 
l3694 -0.184876 0.108440 0.080478 0.152449 0.055929 -0.162778 -0.205395 0.008272 -0.054530 0.230671 
u759 -0.102823 0.063268 0.427310 -0.041508 -0.071911 -0.285757 -0.018757 -0.044368 0.048575 0.003751 
l8039 0.051284 -0.025440 0.177651 -0.201026 0.251527 0.029128 -0.139359 0.032263 -0.228757 0.326640 
l5148 -0.213326 -0.240270 -0.197873 -0.065310 -0.056031 0.297291 0.323045 0.110820 -0.346409 0.091071 
u51 0.191991 0.017888 0.035780 0.136794 -0.140083 0.090148 -0.192958 -0.101890 0.228426 0.021083 
l5278 0.214149 -0.460719 -0.171856 0.035792 -0.078071 -0.050997 0.290099 -0.271642 -0.256426 -0.044115 
l2963 0.011344 0.056693 0.089927 0.154253 0.345893 -0.004233 -0.155063 -0.162023 0.244632 -0.269848 
l9257 -0.165314 -0.042664 0.138015 -0.086777 -0.151820 0.017255 -0.094230 -0.235867 -0.268352 -0.036930 
l9407 -0.060079 0.119673 0.273559 -0.164325 0.207861 0.007560 -0.059218 -0.205610 -0.215579 0.089391 
u720 -0.223326 0.132633 0.145836 0.154612 0.266164 0.120906 0.005643 -0.064415 0.166880 -0.186914 
u703 0.183759 0.226118 -0.102674 -0.059481 0.199145 -0.036508 -0.083660 0.009760 0.180557 -0.028664 
u50 0.066736 0.050919 0.208584 0.224893 0.147659 -0.018014 -0.030768 -0.144505 0.127971 -0.145078 
u479 0.026377 -0.039062 0.093472 -0.084192 -0.226185 0.136646 0.099649 0.135278 0.304537 0.318922 
u611 0.226098 -0.125842 0.087205 0.200586 0.212226 0.138365 0.090372 -0.143750 0.144765 -0.192623 
u275 0.058914 -0.003292 0.139106 0.175522 0.027753 -0.113903 -0.215338 -0.233262 0.028355 -0.053585 
l5965 0.229742 -0.275708 0.268367 -0.042814 -0.263715 0.100076 0.172226 0.036112 0.374146 0.218851 
l8444 -0.007789 0.005131 0.084783 0.070185 0.374933 -0.009210 -0.192040 -0.171965 0.206006 -0.171726 
u626 -0.175615 0.098237 0.228154 -0.110835 -0.063086 -0.105356 -0.209089 -0.163759 0.236879 -0.006380 
u891 0.001438 0.015160 0.286609 0.127548 0.063478 0.053050 -0.014730 -0.031379 0.197116 -0.110555 
u325 -0.093447 0.185031 0.262927 0.069780 0.136544 -0.025181 0.025312 0.133252 -0.200000 0.078465 
l1050 0.082019 0.130771 -0.019228 -0.054491 -0.004140 -0.294559 -0.112482 0.031825 -0.027088 0.113093 
l9675 0.064287 -0.152492 0.147657 0.159621 0.106992 -0.047692 -0.140130 -0.212452 0.076526 -0.279235 
u139 0.217273 -0.000128 0.097359 -0.083233 -0.077810 0.165689 0.195624 -0.079103 0.353985 0.011837 
u103 -0.096711 -0.130219 -0.145063 0.131782 0.190270 0.115644 0.270597 0.256562 -0.285643 -0.056905 
l8151 0.261176 -0.002361 -0.275497 0.251072 -0.138253 0.101334 -0.021904 0.084980 -0.045581 0.331355 
u114 0.230723 0.015423 0.151346 0.106242 0.135619 -0.110276 -0.262095 -0.078647 -0.177424 -0.176322 
u58 -0.241670 -0.167705 -0.139415 -0.089872 -0.063439 0.061946 0.418371 -0.045481 -0.315193 0.086895 
l4345 0.134621 -0.102052 -0.193229 0.061328 0.051038 0.267728 0.393717 0.117986 -0.413260 0.033168 
l2560 0.061930 0.089991 0.027121 0.315452 0.298521 0.099283 0.070692 -0.147156 0.160184 -0.125378 
u198 -0.070336 0.113849 0.032081 0.198222 0.073375 -0.228376 -0.274965 -0.042490 0.090731 0.200981 
u200 -0.317996 -0.019435 -0.057656 -0.163493 -0.075134 0.150452 0.272373 0.113501 -0.144103 -0.218047 
u628 -0.130972 0.123675 -0.164927 0.036130 -0.177302 -0.122017 0.038851 0.205513 -0.065045 0.316081 
u1015 0.079890 0.142072 0.010134 -0.002706 0.160080 -0.105755 0.225399 -0.057073 0.028451 -0.216317 
l9943 0.116320 -0.166152 0.018845 -0.099943 -0.448804 0.118620 0.020476 0.033156 0.284640 0.216342 
u650 0.243296 0.036122 -0.186758 0.142416 -0.277077 -0.004111 0.022061 0.052484 0.035722 0.166335 
l9605 -0.311371 -0.079980 -0.067214 0.129794 -0.284137 -0.357781 0.131500 0.334288 -0.229586 0.024530 
l7769 0.146519 -0.051672 -0.041100 -0.127570 -0.236211 0.098341 -0.255268 0.014102 0.321548 0.331143 
u574 0.227553 0.005929 -0.209180 -0.206654 -0.109765 0.061733 -0.025141 0.148876 0.217843 0.226690 
u348 -0.009362 0.198457 -0.085403 -0.037106 0.145828 -0.043786 -0.140299 0.062801 -0.058174 0.301117 
u36 -0.069214 0.223910 0.230586 0.142644 0.195327 0.029952 -0.181629 -0.125970 0.039037 -0.087476 
l5326 -0.340346 0.384460 -0.133062 0.335868 0.214873 -0.154471 0.121684 -0.407695 0.065104 0.295331 
l8009 -0.084823 -0.100797 0.249559 -0.321390 -0.012518 0.144963 -0.021461 0.022651 -0.127701 0.081007 
u490 0.153139 -0.026543 0.159610 0.167767 0.246941 0.145462 -0.101225 -0.090673 0.151534 -0.254311 
l9969 -0.044378 0.126380 0.168558 0.173031 0.341245 0.066730 -0.293834 -0.225590 0.072891 -0.133910 
l6428 -0.122957 0.209557 0.174098 -0.055157 -0.000477 -0.204297 -0.115513 -0.194489 0.077107 -0.075707 
l1923 -0.030153 0.126145 0.308195 -0.139539 0.287137 -0.259503 -0.251147 0.023327 -0.020865 -0.058446 
u963 0.218193 0.002337 0.082999 0.208712 -0.117684 0.223575 -0.117031 -0.084104 0.327634 0.087630 
